{"learner":{"attributes":{"scikit_learn":"{\"_estimator_type\": \"regressor\"}"},"feature_names":[],"feature_types":[],"gradient_booster":{"model":{"gbtree_model_param":{"num_parallel_tree":"1","num_trees":"500"},"iteration_indptr":[0,1,2,3,4,5,6,7,8,9,10,11,12,13,14,15,16,17,18,19,20,21,22,23,24,25,26,27,28,29,30,31,32,33,34,35,36,37,38,39,40,41,42,43,44,45,46,47,48,49,50,51,52,53,54,55,56,57,58,59,60,61,62,63,64,65,66,67,68,69,70,71,72,73,74,75,76,77,78,79,80,81,82,83,84,85,86,87,88,89,90,91,92,93,94,95,96,97,98,99,100,101,102,103,104,105,106,107,108,109,110,111,112,113,114,115,116,117,118,119,120,121,122,123,124,125,126,127,128,129,130,131,132,133,134,135,136,137,138,139,140,141,142,143,144,145,146,147,148,149,150,151,152,153,154,155,156,157,158,159,160,161,162,163,164,165,166,167,168,169,170,171,172,173,174,175,176,177,178,179,180,181,182,183,184,185,186,187,188,189,190,191,192,193,194,195,196,197,198,199,200,201,202,203,204,205,206,207,208,209,210,211,212,213,214,215,216,217,218,219,220,221,222,223,224,225,226,227,228,229,230,231,232,233,234,235,236,237,238,239,240,241,242,243,244,245,246,247,248,249,250,251,252,253,254,255,256,257,258,259,260,261,262,263,264,265,266,267,268,269,270,271,272,273,274,275,276,277,278,279,280,281,282,283,284,285,286,287,288,289,290,291,292,293,294,295,296,297,298,299,300,301,302,303,304,305,306,307,308,309,310,311,312,313,314,315,316,317,318,319,320,321,322,323,324,325,326,327,328,329,330,331,332,333,334,335,336,337,338,339,340,341,342,343,344,345,346,347,348,349,350,351,352,353,354,355,356,357,358,359,360,361,362,363,364,365,366,367,368,369,370,371,372,373,374,375,376,377,378,379,380,381,382,383,384,385,386,387,388,389,390,391,392,393,394,395,396,397,398,399,400,401,402,403,404,405,406,407,408,409,410,411,412,413,414,415,416,417,418,419,420,421,422,423,424,425,426,427,428,429,430,431,432,433,434,435,436,437,438,439,440,441,442,443,444,445,446,447,448,449,450,451,452,453,454,455,456,457,458,459,460,461,462,463,464,465,466,467,468,469,470,471,472,473,474,475,476,477,478,479,480,481,482,483,484,485,486,487,488,489,490,491,492,493,494,495,496,497,498,499,500],"tree_info":[0,0,0,0,0,0,0,0,0,0,0,0,0,0,0,0,0,0,0,0,0,0,0,0,0,0,0,0,0,0,0,0,0,0,0,0,0,0,0,0,0,0,0,0,0,0,0,0,0,0,0,0,0,0,0,0,0,0,0,0,0,0,0,0,0,0,0,0,0,0,0,0,0,0,0,0,0,0,0,0,0,0,0,0,0,0,0,0,0,0,0,0,0,0,0,0,0,0,0,0,0,0,0,0,0,0,0,0,0,0,0,0,0,0,0,0,0,0,0,0,0,0,0,0,0,0,0,0,0,0,0,0,0,0,0,0,0,0,0,0,0,0,0,0,0,0,0,0,0,0,0,0,0,0,0,0,0,0,0,0,0,0,0,0,0,0,0,0,0,0,0,0,0,0,0,0,0,0,0,0,0,0,0,0,0,0,0,0,0,0,0,0,0,0,0,0,0,0,0,0,0,0,0,0,0,0,0,0,0,0,0,0,0,0,0,0,0,0,0,0,0,0,0,0,0,0,0,0,0,0,0,0,0,0,0,0,0,0,0,0,0,0,0,0,0,0,0,0,0,0,0,0,0,0,0,0,0,0,0,0,0,0,0,0,0,0,0,0,0,0,0,0,0,0,0,0,0,0,0,0,0,0,0,0,0,0,0,0,0,0,0,0,0,0,0,0,0,0,0,0,0,0,0,0,0,0,0,0,0,0,0,0,0,0,0,0,0,0,0,0,0,0,0,0,0,0,0,0,0,0,0,0,0,0,0,0,0,0,0,0,0,0,0,0,0,0,0,0,0,0,0,0,0,0,0,0,0,0,0,0,0,0,0,0,0,0,0,0,0,0,0,0,0,0,0,0,0,0,0,0,0,0,0,0,0,0,0,0,0,0,0,0,0,0,0,0,0,0,0,0,0,0,0,0,0,0,0,0,0,0,0,0,0,0,0,0,0,0,0,0,0,0,0,0,0,0,0,0,0,0,0,0,0,0,0,0,0,0,0,0,0,0,0,0,0,0,0,0,0,0,0,0,0,0,0,0,0,0,0,0,0,0,0,0,0,0,0,0,0,0,0,0,0,0,0,0,0,0,0,0,0,0,0,0,0,0,0,0,0,0,0,0,0,0,0,0,0,0,0,0],"trees":[{"base_weights":[2.0645853E-6,3.631141E1,-1.5095235E1,2.2994566E0,4.0496788E1,-2.0532507E1,8.99174E0,4.4704037E0,-1.5061649E0,4.253726E0,-3.059447E-1,-2.1267278E0,4.0540137E0,1.9756628E0,-1.027036E0],"categories":[],"categories_nodes":[],"categories_segments":[],"categories_sizes":[],"default_left":[0,0,0,0,0,0,0,0,0,0,0,0,0,0,0],"id":0,"left_children":[1,3,5,7,9,11,13,-1,-1,-1,-1,-1,-1,-1,-1],"loss_changes":[6.1226044E5,4.6598594E4,1.0351792E5,2.7912363E4,2.6081688E4,2.9761281E4,3.047664E4,0E0,0E0,0E0,0E0,0E0,0E0,0E0,0E0],"parents":[2147483647,0,0,1,1,2,2,3,3,4,4,5,5,6,6],"right_children":[2,4,6,8,10,12,14,-1,-1,-1,-1,-1,-1,-1,-1],"split_conditions":[-6.5373826E-1,-1.6272141E-1,4.314443E-1,-1.6874819E0,1.7866728E0,6.903638E-1,6.0299355E-1,4.4704037E0,-1.5061649E0,4.253726E0,-3.059447E-1,-2.1267278E0,4.0540137E0,1.9756628E0,-1.027036E0],"split_indices":[0,3,2,0,1,3,0,0,0,0,0,0,0,0,0],"split_type":[0,0,0,0,0,0,0,0,0,0,0,0,0,0,0],"sum_hessian":[1.115E3,3.27E2,7.88E2,3.6E1,2.91E2,6.43E2,1.45E2,1E1,2.6E1,2.78E2,1.3E1,6.36E2,7E0,9.3E1,5.2E1],"tree_param":{"num_deleted":"0","num_feature":"4","num_nodes":"15","size_leaf_vector":"1"}},{"base_weights":[8.771254E-3,3.3725834E1,-1.3175744E1,-9.224357E0,3.6523384E1,-1.8406694E1,8.988502E0,-2.6639383E0,3.58506E0,3.9523132E0,-2.4972646E-1,-1.9067334E0,3.6992874E0,1.8383845E0,-9.2626995E-1],"categories":[],"categories_nodes":[],"categories_segments":[],"categories_sizes":[],"default_left":[0,0,0,0,0,0,0,0,0,0,0,0,0,0,0],"id":1,"left_children":[1,3,5,7,9,11,13,-1,-1,-1,-1,-1,-1,-1,-1],"loss_changes":[4.9655447E5,3.8065688E4,9.326533E4,1.6654666E4,3.4629062E4,2.4494734E4,2.6577635E4,0E0,0E0,0E0,0E0,0E0,0E0,0E0,0E0],"parents":[2147483647,0,0,1,1,2,2,3,3,4,4,5,5,6,6],"right_children":[2,4,6,8,10,12,14,-1,-1,-1,-1,-1,-1,-1,-1],"split_conditions":[-7.058496E-1,-8.158711E-1,4.314443E-1,1.9609466E-1,1.7866728E0,6.903638E-1,6.0299355E-1,-2.6639383E0,3.58506E0,3.9523132E0,-2.4972646E-1,-1.9067334E0,3.6992874E0,1.8383845E0,-9.2626995E-1],"split_indices":[0,2,2,3,1,3,0,0,0,0,0,0,0,0,0],"split_type":[0,0,0,0,0,0,0,0,0,0,0,0,0,0,0],"sum_hessian":[1.115E3,3.13E2,8.02E2,1.9E1,2.94E2,6.49E2,1.53E2,1.4E1,5E0,2.73E2,2.1E1,6.42E2,7E0,1.01E2,5.2E1],"tree_param":{"num_deleted":"0","num_feature":"4","num_nodes":"15","size_leaf_vector":"1"}},{"base_weights":[1.4458345E-2,2.9476847E1,-1.2233549E1,2.0024927E1,4.0289433E1,-1.6633432E1,7.2579417E0,-1.5324929E0,2.4625707E0,7.723202E-1,4.4063964E0,-2.2039819E0,-9.831622E-1,3.4264672E0,1.6642846E-1],"categories":[],"categories_nodes":[],"categories_segments":[],"categories_sizes":[],"default_left":[0,0,0,0,0,0,0,0,0,0,0,0,0,0,0],"id":2,"left_children":[1,3,5,7,9,11,13,-1,-1,-1,-1,-1,-1,-1,-1],"loss_changes":[4.0307544E5,3.2714719E4,6.7785586E4,2.9164102E4,1.834386E4,2.346525E4,2.1998666E4,0E0,0E0,0E0,0E0,0E0,0E0,0E0,0E0],"parents":[2147483647,0,0,1,1,2,2,3,3,4,4,5,5,6,6],"right_children":[2,4,6,8,10,12,14,-1,-1,-1,-1,-1,-1,-1,-1],"split_conditions":[-6.5373826E-1,7.863471E-1,4.314443E-1,-7.736608E-1,-1.8813846E0,-4.2225975E-1,-3.3943835E-1,-1.5324929E0,2.4625707E0,7.723202E-1,4.4063964E0,-2.2039819E0,-9.831622E-1,3.4264672E0,1.6642846E-1],"split_indices":[0,3,2,2,0,2,3,0,0,0,0,0,0,0,0],"split_type":[0,0,0,0,0,0,0,0,0,0,0,0,0,0,0],"sum_hessian":[1.115E3,3.27E2,7.88E2,1.76E2,1.51E2,6.43E2,1.45E2,2E1,1.56E2,1.6E1,1.35E2,3.57E2,2.86E2,2.4E1,1.21E2],"tree_param":{"num_deleted":"0","num_feature":"4","num_nodes":"15","size_leaf_vector":"1"}},{"base_weights":[1.8849425E-2,2.863949E1,-1.0299943E1,9.459205E-1,3.1190758E1,-1.4870798E1,8.102024E0,-1.8272161E0,3.9276981E0,3.3454137E0,-2.4808474E-1,-1.570453E0,2.7703216E0,1.5923244E0,-8.578704E-1],"categories":[],"categories_nodes":[],"categories_segments":[],"categories_sizes":[],"default_left":[0,0,0,0,0,0,0,0,0,0,0,0,0,0,0],"id":3,"left_children":[1,3,5,7,9,11,13,-1,-1,-1,-1,-1,-1,-1,-1],"loss_changes":[3.2988378E5,2.0883969E4,6.917705E4,1.987056E4,2.0736344E4,2.3790984E4,2.1532637E4,0E0,0E0,0E0,0E0,0E0,0E0,0E0,0E0],"parents":[2147483647,0,0,1,1,2,2,3,3,4,4,5,5,6,6],"right_children":[2,4,6,8,10,12,14,-1,-1,-1,-1,-1,-1,-1,-1],"split_conditions":[-7.5068957E-1,-7.5044507E-1,4.314443E-1,1.9609466E-1,1.7866728E0,5.4594034E-1,6.0299355E-1,-1.8272161E0,3.9276981E0,3.3454137E0,-2.4808474E-1,-1.570453E0,2.7703216E0,1.5923244E0,-8.578704E-1],"split_indices":[0,2,2,3,1,3,0,0,0,0,0,0,0,0,0],"split_type":[0,0,0,0,0,0,0,0,0,0,0,0,0,0,0],"sum_hessian":[1.115E3,2.95E2,8.2E2,2.5E1,2.7E2,6.57E2,1.63E2,1.7E1,8E0,2.53E2,1.7E1,6.45E2,1.2E1,1.11E2,5.2E1],"tree_param":{"num_deleted":"0","num_feature":"4","num_nodes":"15","size_leaf_vector":"1"}},{"base_weights":[2.3353659E-2,2.5793102E1,-9.267595E0,9.3211746E-1,2.808311E1,-1.3381898E1,7.2963014E0,-1.5189251E0,3.9103851E0,3.0121894E0,-2.2465448E-1,-1.4136512E0,2.5145993E0,1.4345137E0,-7.7370185E-1],"categories":[],"categories_nodes":[],"categories_segments":[],"categories_sizes":[],"default_left":[0,0,0,0,0,0,0,0,0,0,0,0,0,0,0],"id":4,"left_children":[1,3,5,7,9,11,13,-1,-1,-1,-1,-1,-1,-1,-1],"loss_changes":[2.674378E5,1.6825672E4,5.6047867E4,1.6593852E4,1.682511E4,1.9485977E4,1.748964E4,0E0,0E0,0E0,0E0,0E0,0E0,0E0,0E0],"parents":[2147483647,0,0,1,1,2,2,3,3,4,4,5,5,6,6],"right_children":[2,4,6,8,10,12,14,-1,-1,-1,-1,-1,-1,-1,-1],"split_conditions":[-7.5068957E-1,-7.5044507E-1,4.314443E-1,2.194177E-1,1.7866728E0,5.4594034E-1,6.0299355E-1,-1.5189251E0,3.9103851E0,3.0121894E0,-2.2465448E-1,-1.4136512E0,2.5145993E0,1.4345137E0,-7.7370185E-1],"split_indices":[0,2,2,3,1,3,0,0,0,0,0,0,0,0,0],"split_type":[0,0,0,0,0,0,0,0,0,0,0,0,0,0,0],"sum_hessian":[1.115E3,2.95E2,8.2E2,2.5E1,2.7E2,6.57E2,1.63E2,1.8E1,7E0,2.53E2,1.7E1,6.45E2,1.2E1,1.11E2,5.2E1],"tree_param":{"num_deleted":"0","num_feature":"4","num_nodes":"15","size_leaf_vector":"1"}},{"base_weights":[2.7236493E-2,2.2310373E1,-8.686254E0,2.5137802E1,1.112798E0,-1.681429E1,-2.0097036E0,8.8132936E-1,2.8871408E0,1.2837391E0,-2.536027E0,-2.059249E0,3.7636667E-1,-4.064704E-1,2.3583016E0],"categories":[],"categories_nodes":[],"categories_segments":[],"categories_sizes":[],"default_left":[0,0,0,0,0,0,0,0,0,0,0,0,0,0,0],"id":5,"left_children":[1,3,5,7,9,11,13,-1,-1,-1,-1,-1,-1,-1,-1],"loss_changes":[2.168807E5,1.87915E4,4.3542793E4,1.66285E4,1.2120226E4,2.822214E4,2.3341982E4,0E0,0E0,0E0,0E0,0E0,0E0,0E0,0E0],"parents":[2147483647,0,0,1,1,2,2,3,3,4,4,5,5,6,6],"right_children":[2,4,6,8,10,12,14,-1,-1,-1,-1,-1,-1,-1,-1],"split_conditions":[-7.058496E-1,1.3907644E0,-4.2225975E-1,-4.6974638E-1,-8.7551445E-1,-2.3448463E-1,1.0931349E0,8.8132936E-1,2.8871408E0,1.2837391E0,-2.536027E0,-2.059249E0,3.7636667E-1,-4.064704E-1,2.3583016E0],"split_indices":[0,1,2,2,0,3,3,0,0,0,0,0,0,0,0],"split_type":[0,0,0,0,0,0,0,0,0,0,0,0,0,0,0],"sum_hessian":[1.115E3,3.13E2,8.02E2,2.76E2,3.7E1,3.61E2,4.41E2,5.2E1,2.24E2,2.6E1,1.1E1,3.05E2,5.6E1,4.09E2,3.2E1],"tree_param":{"num_deleted":"0","num_feature":"4","num_nodes":"15","size_leaf_vector":"1"}},{"base_weights":[2.700956E-2,2.308669E1,-6.8989797E0,-7.4723673E0,2.4607752E1,-9.588795E0,1.5907244E1,1.5047497E-1,-3.7897675E0,-1.7046258E-1,2.6445591E0,-1.5313796E0,-4.512232E-1,2.2170076E0,-3.5728714E-1],"categories":[],"categories_nodes":[],"categories_segments":[],"categories_sizes":[],"default_left":[0,0,0,0,0,0,0,0,0,0,0,0,0,0,0],"id":6,"left_children":[1,3,5,7,9,11,13,-1,-1,-1,-1,-1,-1,-1,-1],"loss_changes":[1.7839688E5,1.2176281E4,5.284747E4,3.6077368E3,1.1941109E4,2.2280594E4,1.1181275E4,0E0,0E0,0E0,0E0,0E0,0E0,0E0,0E0],"parents":[2147483647,0,0,1,1,2,2,3,3,4,4,5,5,6,6],"right_children":[2,4,6,8,10,12,14,-1,-1,-1,-1,-1,-1,-1,-1],"split_conditions":[-8.512766E-1,-2.5152838E-1,8.841501E-1,-2.5242543E-1,-1.8813846E0,-4.486412E-1,4.7816867E-1,1.5047497E-1,-3.7897675E0,-1.7046258E-1,2.6445591E0,-1.5313796E0,-4.512232E-1,2.2170076E0,-3.5728714E-1],"split_indices":[0,3,2,3,0,2,0,0,0,0,0,0,0,0,0],"split_type":[0,0,0,0,0,0,0,0,0,0,0,0,0,0,0],"sum_hessian":[1.115E3,2.57E2,8.58E2,1.2E1,2.45E2,7.68E2,9E1,1E1,2E0,1.6E1,2.29E2,3.6E2,4.08E2,6.8E1,2.2E1],"tree_param":{"num_deleted":"0","num_feature":"4","num_nodes":"15","size_leaf_vector":"1"}},{"base_weights":[2.315446E-2,1.6610607E1,-7.800734E0,-5.995263E0,1.996274E1,-1.3768487E1,-2.6056054E0,2.9213777E0,-1.6300782E0,2.1841E0,-6.722483E-2,-1.847709E0,-2.0954754E-2,1.114787E0,-7.994835E-1],"categories":[],"categories_nodes":[],"categories_segments":[],"categories_sizes":[],"default_left":[0,0,0,0,0,0,0,0,0,0,0,0,0,0,0],"id":7,"left_children":[1,3,5,7,9,11,13,-1,-1,-1,-1,-1,-1,-1,-1],"loss_changes":[1.4496225E5,2.7248164E4,2.3495586E4,1.7530033E4,1.2107125E4,2.2532938E4,3.0256223E4,0E0,0E0,0E0,0E0,0E0,0E0,0E0,0E0],"parents":[2147483647,0,0,1,1,2,2,3,3,4,4,5,5,6,6],"right_children":[2,4,6,8,10,12,14,-1,-1,-1,-1,-1,-1,-1,-1],"split_conditions":[-5.119469E-1,-1.6630958E-1,-4.2225975E-1,-1.6874819E0,1.4244356E0,-3.7801108E-1,-6.856958E-1,2.9213777E0,-1.6300782E0,2.1841E0,-6.722483E-2,-1.847709E0,-2.0954754E-2,1.114787E0,-7.994835E-1],"split_indices":[0,3,2,0,1,3,3,0,0,0,0,0,0,0,0],"split_type":[0,0,0,0,0,0,0,0,0,0,0,0,0,0,0],"sum_hessian":[1.115E3,3.57E2,7.58E2,4.6E1,3.11E2,3.52E2,4.06E2,1E1,3.6E1,2.85E2,2.6E1,2.61E2,9.1E1,1.14E2,2.92E2],"tree_param":{"num_deleted":"0","num_feature":"4","num_nodes":"15","size_leaf_vector":"1"}},{"base_weights":[2.2502653E-2,1.9339968E1,-5.5477266E0,2.973682E1,1.5370973E1,-7.6454997E0,1.5770074E1,-8.367252E-1,3.2249067E0,-2.420984E0,1.6390711E0,-8.470317E-1,1.6917213E0,2.0195224E0,-1.2963639E-1],"categories":[],"categories_nodes":[],"categories_segments":[],"categories_sizes":[],"default_left":[0,0,0,0,0,0,0,0,0,0,0,0,0,0,0],"id":8,"left_children":[1,3,5,7,9,11,13,-1,-1,-1,-1,-1,-1,-1,-1],"loss_changes":[1.20191914E5,9.85918E3,3.8892734E4,6.779246E3,7.7830703E3,1.6148496E4,5.9168613E3,0E0,0E0,0E0,0E0,0E0,0E0,0E0,0E0],"parents":[2147483647,0,0,1,1,2,2,3,3,4,4,5,5,6,6],"right_children":[2,4,6,8,10,12,14,-1,-1,-1,-1,-1,-1,-1,-1],"split_conditions":[-8.7187874E-1,-4.3997267E-1,9.675155E-1,-7.884344E-1,-2.0025737E0,8.150524E-1,4.612022E-1,-8.367252E-1,3.2249067E0,-2.420984E0,1.6390711E0,-8.470317E-1,1.6917213E0,2.0195224E0,-1.2963639E-1],"split_indices":[0,1,2,2,0,3,0,0,0,0,0,0,0,0,0],"split_type":[0,0,0,0,0,0,0,0,0,0,0,0,0,0,0],"sum_hessian":[1.115E3,2.49E2,8.66E2,6.7E1,1.82E2,7.89E2,7.7E1,4E0,6.3E1,4E0,1.78E2,7.64E2,2.5E1,6.1E1,1.6E1],"tree_param":{"num_deleted":"0","num_feature":"4","num_nodes":"15","size_leaf_vector":"1"}},{"base_weights":[2.4141708E-2,1.7062279E1,-5.093278E0,1.146882E1,2.3399181E1,-7.012883E0,1.4217296E1,1.2868462E0,-5.627109E0,-2.923769E-1,2.718745E0,-1.1670957E0,-3.0115148E-1,9.05425E-1,2.7800124E0],"categories":[],"categories_nodes":[],"categories_segments":[],"categories_sizes":[],"default_left":[0,0,0,0,0,0,0,0,0,0,0,0,0,0,0],"id":9,"left_children":[1,3,5,7,9,11,13,-1,-1,-1,-1,-1,-1,-1,-1],"loss_changes":[9.739238E4,8.8765E3,3.1941703E4,1.39029375E4,1.2045695E4,1.4540289E4,5.218333E3,0E0,0E0,0E0,0E0,0E0,0E0,0E0,0E0],"parents":[2147483647,0,0,1,1,2,2,3,3,4,4,5,5,6,6],"right_children":[2,4,6,8,10,12,14,-1,-1,-1,-1,-1,-1,-1,-1],"split_conditions":[-8.512766E-1,9.137268E-1,9.675155E-1,1.7146385E0,-1.8813846E0,-4.486412E-1,1.9942819E0,1.2868462E0,-5.627109E0,-2.923769E-1,2.718745E0,-1.1670957E0,-3.0115148E-1,9.05425E-1,2.7800124E0],"split_indices":[0,3,2,2,0,2,2,0,0,0,0,0,0,0,0],"split_type":[0,0,0,0,0,0,0,0,0,0,0,0,0,0,0],"sum_hessian":[1.115E3,2.57E2,8.58E2,1.38E2,1.19E2,7.81E2,7.7E1,1.36E2,2E0,1.5E1,1.04E2,3.6E2,4.21E2,5.7E1,2E1],"tree_param":{"num_deleted":"0","num_feature":"4","num_nodes":"15","size_leaf_vector":"1"}},{"base_weights":[2.200193E-2,1.1990484E1,-5.930182E0,-1.9379492E1,1.3928053E1,-1.1274233E1,-2.4875596E0,-1.452485E0,-2.9904401E0,1.575715E0,-1.9709812E-1,-1.745011E0,-2.1492188E-1,7.11053E-1,-7.2784215E-1],"categories":[],"categories_nodes":[],"categories_segments":[],"categories_sizes":[],"default_left":[0,0,0,0,0,0,0,0,0,0,0,0,0,0,0],"id":10,"left_children":[1,3,5,7,9,11,13,-1,-1,-1,-1,-1,-1,-1,-1],"loss_changes":[7.95734E4,2.2819848E4,1.3696527E4,6.8972656E2,1.0209359E4,1.6418145E4,2.0974072E4,0E0,0E0,0E0,0E0,0E0,0E0,0E0,0E0],"parents":[2147483647,0,0,1,1,2,2,3,3,4,4,5,5,6,6],"right_children":[2,4,6,8,10,12,14,-1,-1,-1,-1,-1,-1,-1,-1],"split_conditions":[-4.683188E-1,-2.8830704E-1,-5.5205655E-1,1.4244356E0,1.4244356E0,-5.744629E-1,-6.623728E-1,-1.452485E0,-2.9904401E0,1.575715E0,-1.9709812E-1,-1.745011E0,-2.1492188E-1,7.11053E-1,-7.2784215E-1],"split_indices":[0,3,2,1,1,3,3,0,0,0,0,0,0,0,0],"split_type":[0,0,0,0,0,0,0,0,0,0,0,0,0,0,0],"sum_hessian":[1.115E3,3.7E2,7.45E2,2.1E1,3.49E2,2.91E2,4.54E2,1.6E1,5E0,3.13E2,3.6E1,1.73E2,1.18E2,1.51E2,3.03E2],"tree_param":{"num_deleted":"0","num_feature":"4","num_nodes":"15","size_leaf_vector":"1"}},{"base_weights":[1.5284931E-2,1.4364042E1,-4.122206E0,1.5111928E1,-2.530473E1,-5.898529E0,1.10901575E1,-6.6038094E-2,1.7140759E0,-7.4626654E-1,-2.789958E0,-6.5543413E-1,1.4950675E0,1.5369853E0,-2.2311103E-1],"categories":[],"categories_nodes":[],"categories_segments":[],"categories_sizes":[],"default_left":[0,0,0,0,0,0,0,0,0,0,0,0,0,0,0],"id":11,"left_children":[1,3,5,7,9,11,13,-1,-1,-1,-1,-1,-1,-1,-1],"loss_changes":[6.631374E4,7.799324E3,2.3493547E4,7.88316E3,2.3281982E1,1.0722037E4,5.222291E3,0E0,0E0,0E0,0E0,0E0,0E0,0E0,0E0],"parents":[2147483647,0,0,1,1,2,2,3,3,4,4,5,5,6,6],"right_children":[2,4,6,8,10,12,14,-1,-1,-1,-1,-1,-1,-1,-1],"split_conditions":[-8.7187874E-1,2.259156E0,8.841501E-1,-6.639139E-1,-1.8086711E0,7.863471E-1,4.7816867E-1,-6.6038094E-2,1.7140759E0,-7.4626654E-1,-2.789958E0,-6.5543413E-1,1.4950675E0,1.5369853E0,-2.2311103E-1],"split_indices":[0,1,2,2,0,3,0,0,0,0,0,0,0,0,0],"split_type":[0,0,0,0,0,0,0,0,0,0,0,0,0,0,0],"sum_hessian":[1.115E3,2.49E2,8.66E2,2.45E2,4E0,7.76E2,9E1,2.8E1,2.17E2,1E0,3E0,7.53E2,2.3E1,6.8E1,2.2E1],"tree_param":{"num_deleted":"0","num_feature":"4","num_nodes":"15","size_leaf_vector":"1"}},{"base_weights":[1.3993622E-2,1.2920084E1,-3.707502E0,2.17511E1,9.568013E0,-5.182142E0,1.1275482E1,-9.9350923E-1,2.3886724E0,-2.4670985E0,1.0470957E0,-5.830197E-1,1.4084953E0,7.555334E-1,2.6396415E0],"categories":[],"categories_nodes":[],"categories_segments":[],"categories_sizes":[],"default_left":[0,0,0,0,0,0,0,0,0,0,0,0,0,0,0],"id":12,"left_children":[1,3,5,7,9,11,13,-1,-1,-1,-1,-1,-1,-1,-1],"loss_changes":[5.3649336E4,7.1924336E3,1.9214363E4,4.8388594E3,5.9159395E3,9.946172E3,4.1882314E3,0E0,0E0,0E0,0E0,0E0,0E0,0E0,0E0],"parents":[2147483647,0,0,1,1,2,2,3,3,4,4,5,5,6,6],"right_children":[2,4,6,8,10,12,14,-1,-1,-1,-1,-1,-1,-1,-1],"split_conditions":[-8.7187874E-1,-4.3997267E-1,9.675155E-1,-7.884344E-1,-2.0025737E0,8.150524E-1,2.3604565E0,-9.9350923E-1,2.3886724E0,-2.4670985E0,1.0470957E0,-5.830197E-1,1.4084953E0,7.555334E-1,2.6396415E0],"split_indices":[0,1,2,2,0,3,2,0,0,0,0,0,0,0,0],"split_type":[0,0,0,0,0,0,0,0,0,0,0,0,0,0,0],"sum_hessian":[1.115E3,2.49E2,8.66E2,6.7E1,1.82E2,7.89E2,7.7E1,4E0,6.3E1,4E0,1.78E2,7.64E2,2.5E1,6.3E1,1.4E1],"tree_param":{"num_deleted":"0","num_feature":"4","num_nodes":"15","size_leaf_vector":"1"}},{"base_weights":[1.6356751E-2,8.427414E0,-4.6577773E0,-1.3950394E1,1.0959622E1,-9.337754E0,-1.6094028E0,-2.1583004E0,-3.976688E-1,1.2331936E0,-2.9708692E-1,-1.050978E0,2.3709493E0,8.27352E-1,-6.664984E-1],"categories":[],"categories_nodes":[],"categories_segments":[],"categories_sizes":[],"default_left":[0,0,0,0,0,0,0,0,0,0,0,0,0,0,0],"id":13,"left_children":[1,3,5,7,9,11,13,-1,-1,-1,-1,-1,-1,-1,-1],"loss_changes":[4.3914137E4,2.2762334E4,1.022819E4,3.0353125E3,6.8996406E3,1.1210387E4,2.183941E4,0E0,0E0,0E0,0E0,0E0,0E0,0E0,0E0],"parents":[2147483647,0,0,1,1,2,2,3,3,4,4,5,5,6,6],"right_children":[2,4,6,8,10,12,14,-1,-1,-1,-1,-1,-1,-1,-1],"split_conditions":[-3.471296E-1,-2.5152838E-1,-5.4783547E-1,-5.000085E-1,1.4244356E0,1.220142E-2,-6.623728E-1,-2.1583004E0,-3.976688E-1,1.2331936E0,-2.9708692E-1,-1.050978E0,2.3709493E0,8.27352E-1,-6.664984E-1],"split_indices":[0,3,2,3,1,3,3,0,0,0,0,0,0,0,0],"split_type":[0,0,0,0,0,0,0,0,0,0,0,0,0,0,0],"sum_hessian":[1.115E3,3.98E2,7.17E2,4E1,3.58E2,2.82E2,4.35E2,2.2E1,1.8E1,3.26E2,3.2E1,2.73E2,9E0,1.47E2,2.88E2],"tree_param":{"num_deleted":"0","num_feature":"4","num_nodes":"15","size_leaf_vector":"1"}},{"base_weights":[1.4595141E-2,-2.797635E0,1.2089789E1,1.6493376E1,-3.731074E0,2.3612095E1,8.364775E0,-1.2039088E0,1.981361E0,-7.3014253E-1,-3.5133005E-5,1.3512609E0,2.8264408E0,5.439179E-1,2.3346167E0],"categories":[],"categories_nodes":[],"categories_segments":[],"categories_sizes":[],"default_left":[0,0,0,0,0,0,0,0,0,0,0,0,0,0,0],"id":14,"left_children":[1,3,5,7,9,11,13,-1,-1,-1,-1,-1,-1,-1,-1],"loss_changes":[3.79312E4,1.6375864E4,8.858768E3,4.2173857E3,1.152179E4,2.0143594E3,6.9295635E3,0E0,0E0,0E0,0E0,0E0,0E0,0E0,0E0],"parents":[2147483647,0,0,1,1,2,2,3,3,4,4,5,5,6,6],"right_children":[2,4,6,8,10,12,14,-1,-1,-1,-1,-1,-1,-1,-1],"split_conditions":[7.863471E-1,-1.5662928E0,2.71045E-1,-2.5152838E-1,-3.652758E-1,-1.2996765E0,2.3604565E0,-1.2039088E0,1.981361E0,-7.3014253E-1,-3.5133005E-5,1.3512609E0,2.8264408E0,5.439179E-1,2.3346167E0],"split_indices":[3,0,2,3,2,0,2,0,0,0,0,0,0,0,0],"split_type":[0,0,0,0,0,0,0,0,0,0,0,0,0,0,0],"sum_hessian":[1.115E3,9.05E2,2.1E2,4.1E1,8.64E2,5E1,1.6E2,4E0,3.7E1,4.41E2,4.23E2,1.7E1,3.3E1,1.35E2,2.5E1],"tree_param":{"num_deleted":"0","num_feature":"4","num_nodes":"15","size_leaf_vector":"1"}},{"base_weights":[1.9501567E-2,-2.517819E0,1.0914254E1,-3.5944808E0,1.219665E1,2.13328E1,7.5461793E0,1.2477459E0,-4.2013955E-1,1.9123722E0,-2.238286E-1,1.3457836E0,2.7320883E0,4.8992634E-1,2.1101348E0],"categories":[],"categories_nodes":[],"categories_segments":[],"categories_sizes":[],"default_left":[0,0,0,0,0,0,0,0,0,0,0,0,0,0,0],"id":15,"left_children":[1,3,5,7,9,11,13,-1,-1,-1,-1,-1,-1,-1,-1],"loss_changes":[3.0877604E4,1.439715E4,7.2431016E3,8.294807E3,6.242298E3,2.0372715E3,5.6732E3,0E0,0E0,0E0,0E0,0E0,0E0,0E0,0E0],"parents":[2147483647,0,0,1,1,2,2,3,3,4,4,5,5,6,6],"right_children":[2,4,6,8,10,12,14,-1,-1,-1,-1,-1,-1,-1,-1],"split_conditions":[7.863471E-1,8.3982927E-1,2.71045E-1,-1.5990138E0,3.665323E-1,1.0841645E0,2.3604565E0,1.2477459E0,-4.2013955E-1,1.9123722E0,-2.238286E-1,1.3457836E0,2.7320883E0,4.8992634E-1,2.1101348E0],"split_indices":[3,2,2,0,3,3,2,0,0,0,0,0,0,0,0],"split_type":[0,0,0,0,0,0,0,0,0,0,0,0,0,0,0],"sum_hessian":[1.115E3,9.05E2,2.1E2,8.44E2,6.1E1,5E1,1.6E2,3E1,8.14E2,4.1E1,2E1,2.3E1,2.7E1,1.35E2,2.5E1],"tree_param":{"num_deleted":"0","num_feature":"4","num_nodes":"15","size_leaf_vector":"1"}},{"base_weights":[2.5792154E-2,6.538521E0,-3.593434E0,-1.4234544E1,8.388582E0,-5.186071E0,2.6817322E0,-1.6760542E0,8.2690775E-1,9.0916693E-1,-1.5192384E0,-5.95247E-1,1.3399667E0,2.870282E0,-4.2952976E-1],"categories":[],"categories_nodes":[],"categories_segments":[],"categories_sizes":[],"default_left":[0,0,0,0,0,0,0,0,0,0,0,0,0,0,0],"id":16,"left_children":[1,3,5,7,9,11,13,-1,-1,-1,-1,-1,-1,-1,-1],"loss_changes":[2.6328773E4,1.5453559E4,7.1896436E3,2.0144502E3,6.222789E3,8.241626E3,2.6629572E4,0E0,0E0,0E0,0E0,0E0,0E0,0E0,0E0],"parents":[2147483647,0,0,1,1,2,2,3,3,4,4,5,5,6,6],"right_children":[2,4,6,8,10,12,14,-1,-1,-1,-1,-1,-1,-1,-1],"split_conditions":[-3.471296E-1,-2.8830704E-1,3.4596834E-1,-6.663767E-2,2.03975E0,2.194177E-1,-1.2683982E-1,-1.6760542E0,8.2690775E-1,9.0916693E-1,-1.5192384E0,-5.95247E-1,1.3399667E0,2.870282E0,-4.2952976E-1],"split_indices":[0,3,2,2,1,3,3,0,0,0,0,0,0,0,0],"split_type":[0,0,0,0,0,0,0,0,0,0,0,0,0,0,0],"sum_hessian":[1.115E3,3.98E2,7.17E2,3.2E1,3.66E2,5.72E2,1.45E2,2.9E1,3E0,3.56E2,1E1,5.5E2,2.2E1,3E1,1.15E2],"tree_param":{"num_deleted":"0","num_feature":"4","num_nodes":"15","size_leaf_vector":"1"}},{"base_weights":[2.4759477E-2,-2.1154063E0,9.214169E0,-3.0156307E0,1.01879015E1,-1.02491455E1,1.0863718E1,1.0468463E0,-3.5248226E-1,1.6166039E0,-2.2535121E-1,-3.0467803E0,-3.7403047E-1,1.4491051E0,5.116752E-1],"categories":[],"categories_nodes":[],"categories_segments":[],"categories_sizes":[],"default_left":[0,0,0,0,0,0,0,0,0,0,0,0,0,0,0],"id":17,"left_children":[1,3,5,7,9,11,13,-1,-1,-1,-1,-1,-1,-1,-1],"loss_changes":[2.1967707E4,1.0065342E4,6.8856465E3,5.8386616E3,4.6477725E3,2.1232417E3,3.9908555E3,0E0,0E0,0E0,0E0,0E0,0E0,0E0,0E0],"parents":[2147483647,0,0,1,1,2,2,3,3,4,4,5,5,6,6],"right_children":[2,4,6,8,10,12,14,-1,-1,-1,-1,-1,-1,-1,-1],"split_conditions":[7.863471E-1,8.3982927E-1,-1.8813846E0,-1.5990138E0,3.665323E-1,1.164898E0,-8.512766E-1,1.0468463E0,-3.5248226E-1,1.6166039E0,-2.2535121E-1,-3.0467803E0,-3.7403047E-1,1.4491051E0,5.116752E-1],"split_indices":[3,2,0,0,3,3,0,0,0,0,0,0,0,0,0],"split_type":[0,0,0,0,0,0,0,0,0,0,0,0,0,0,0],"sum_hessian":[1.115E3,9.05E2,2.1E2,8.44E2,6.1E1,1.6E1,1.94E2,3E1,8.14E2,4.1E1,2E1,3E0,1.3E1,1.18E2,7.6E1],"tree_param":{"num_deleted":"0","num_feature":"4","num_nodes":"15","size_leaf_vector":"1"}},{"base_weights":[2.2845866E-2,5.389477E0,-2.959478E0,-1.6745466E1,6.725589E0,-6.3778467E0,-7.3388654E-1,-1.784051E0,3.6727372E-1,7.3322004E-1,-1.4124595E0,-1.1162E0,9.183297E-2,8.3973265E-1,-5.4075396E-1],"categories":[],"categories_nodes":[],"categories_segments":[],"categories_sizes":[],"default_left":[0,0,0,0,0,0,0,0,0,0,0,0,0,0,0],"id":18,"left_children":[1,3,5,7,9,11,13,-1,-1,-1,-1,-1,-1,-1,-1],"loss_changes":[1.7877564E4,1.1912955E4,5.4577866E3,5.797759E2,4.8718438E3,9.888655E3,1.8652197E4,0E0,0E0,0E0,0E0,0E0,0E0,0E0,0E0],"parents":[2147483647,0,0,1,1,2,2,3,3,4,4,5,5,6,6],"right_children":[2,4,6,8,10,12,14,-1,-1,-1,-1,-1,-1,-1,-1],"split_conditions":[-3.471296E-1,-5.000085E-1,-5.4783547E-1,-6.663767E-2,2.03975E0,-5.744629E-1,-6.623728E-1,-1.784051E0,3.6727372E-1,7.3322004E-1,-1.4124595E0,-1.1162E0,9.183297E-2,8.3973265E-1,-5.4075396E-1],"split_indices":[0,3,2,2,1,3,3,0,0,0,0,0,0,0,0],"split_type":[0,0,0,0,0,0,0,0,0,0,0,0,0,0,0],"sum_hessian":[1.115E3,3.98E2,7.17E2,2.2E1,3.76E2,2.82E2,4.35E2,2.1E1,1E0,3.66E2,1E1,1.7E2,1.12E2,1.47E2,2.88E2],"tree_param":{"num_deleted":"0","num_feature":"4","num_nodes":"15","size_leaf_vector":"1"}},{"base_weights":[1.8034946E-2,-1.805559E0,7.848168E0,-2.58203E0,8.806113E0,-1.0115546E1,9.373988E0,-2.0663121E-1,-1.482265E0,1.1464103E0,-1.791247E0,-2.0356407E0,1.2492633E-1,1.6433283E0,6.826416E-1],"categories":[],"categories_nodes":[],"categories_segments":[],"categories_sizes":[],"default_left":[0,0,0,0,0,0,0,0,0,0,0,0,0,0,0],"id":19,"left_children":[1,3,5,7,9,11,13,-1,-1,-1,-1,-1,-1,-1,-1],"loss_changes":[1.5949516E4,7.487867E3,5.878205E3,5.3036113E3,4.6084487E3,2.0039829E3,3.394713E3,0E0,0E0,0E0,0E0,0E0,0E0,0E0,0E0],"parents":[2147483647,0,0,1,1,2,2,3,3,4,4,5,5,6,6],"right_children":[2,4,6,8,10,12,14,-1,-1,-1,-1,-1,-1,-1,-1],"split_conditions":[7.863471E-1,8.3982927E-1,-1.8813846E0,1.7866728E0,2.1652339E0,5.158556E-1,2.71045E-1,-2.0663121E-1,-1.482265E0,1.1464103E0,-1.791247E0,-2.0356407E0,1.2492633E-1,1.6433283E0,6.826416E-1],"split_indices":[3,2,0,1,2,1,2,0,0,0,0,0,0,0,0],"split_type":[0,0,0,0,0,0,0,0,0,0,0,0,0,0,0],"sum_hessian":[1.115E3,9.05E2,2.1E2,8.44E2,6.1E1,1.6E1,1.94E2,8.11E2,3.3E1,5.6E1,5E0,8E0,8E0,5E1,1.44E2],"tree_param":{"num_deleted":"0","num_feature":"4","num_nodes":"15","size_leaf_vector":"1"}},{"base_weights":[1.4514534E-2,-1.2582767E0,9.762602E0,2.7663033E0,-2.9180558E0,-2.327854E0,1.0734046E1,-1.4713022E0,4.2616525E-1,-4.177153E-1,2.0590805E-1,2.147019E0,8.3823395E-1],"categories":[],"categories_nodes":[],"categories_segments":[],"categories_sizes":[],"default_left":[0,0,0,0,0,0,0,0,0,0,0,0,0],"id":20,"left_children":[1,3,5,7,9,-1,11,-1,-1,-1,-1,-1,-1],"loss_changes":[1.3858808E4,6.6078267E3,4.390466E3,7.616493E3,4.3952905E3,0E0,3.0013115E3,0E0,0E0,0E0,0E0,0E0,0E0],"parents":[2147483647,0,0,1,1,2,2,3,3,4,4,6,6],"right_children":[2,4,6,8,10,-1,12,-1,-1,-1,-1,-1,-1],"split_conditions":[1.164898E0,-3.471296E-1,-2.0025737E0,-5.000085E-1,9.2316884E-1,-2.327854E0,2.71045E-1,-1.4713022E0,4.2616525E-1,-4.177153E-1,2.0590805E-1,2.147019E0,8.3823395E-1],"split_indices":[3,0,0,3,1,0,2,0,0,0,0,0,0],"split_type":[0,0,0,0,0,0,0,0,0,0,0,0,0],"sum_hessian":[1.115E3,9.87E2,1.28E2,2.88E2,6.99E2,3E0,1.25E2,2.2E1,2.66E2,5.58E2,1.41E2,2.1E1,1.04E2],"tree_param":{"num_deleted":"0","num_feature":"4","num_nodes":"13","size_leaf_vector":"1"}},{"base_weights":[1.2527069E-2,-1.1337198E0,8.791437E0,-3.5306075E-1,-8.642717E0,1.4295732E1,3.4845412E0,-1.3428245E-1,9.899849E-1,7.1029985E-1,-1.0414318E0,1.6023276E0,-1.8136531E-1,-3.0776426E-1,1.7047083E0],"categories":[],"categories_nodes":[],"categories_segments":[],"categories_sizes":[],"default_left":[0,0,0,0,0,0,0,0,0,0,0,0,0,0,0],"id":21,"left_children":[1,3,5,7,9,11,13,-1,-1,-1,-1,-1,-1,-1,-1],"loss_changes":[1.1240049E4,5.788572E3,3.7183691E3,9.105864E3,2.6682197E3,1.7823281E3,6.015457E3,0E0,0E0,0E0,0E0,0E0,0E0,0E0,0E0],"parents":[2147483647,0,0,1,1,2,2,3,3,4,4,5,5,6,6],"right_children":[2,4,6,8,10,12,14,-1,-1,-1,-1,-1,-1,-1,-1],"split_conditions":[1.164898E0,1.4244356E0,1.5405208E0,1.0643708E0,-1.517817E0,5.5451787E-1,2.3604565E0,-1.3428245E-1,9.899849E-1,7.1029985E-1,-1.0414318E0,1.6023276E0,-1.8136531E-1,-3.0776426E-1,1.7047083E0],"split_indices":[3,1,2,1,0,0,2,0,0,0,0,0,0,0,0],"split_type":[0,0,0,0,0,0,0,0,0,0,0,0,0,0,0],"sum_hessian":[1.115E3,9.87E2,1.28E2,8.95E2,9.2E1,6.2E1,6.6E1,8.17E2,7.8E1,9E0,8.3E1,5.6E1,6E0,4.5E1,2.1E1],"tree_param":{"num_deleted":"0","num_feature":"4","num_nodes":"15","size_leaf_vector":"1"}},{"base_weights":[1.4270936E-2,5.590321E0,-1.593603E0,1.2412304E1,3.0248282E0,-4.546774E0,6.9851416E-1,-1.0306729E0,1.3993286E0,-2.2280316E0,3.7147775E-1,-6.016028E-1,1.6498508E0,1.055869E0,-2.4660662E-1],"categories":[],"categories_nodes":[],"categories_segments":[],"categories_sizes":[],"default_left":[0,0,0,0,0,0,0,0,0,0,0,0,0,0,0],"id":22,"left_children":[1,3,5,7,9,11,13,-1,-1,-1,-1,-1,-1,-1,-1],"loss_changes":[1.0014502E4,4.3378906E3,5.87191E3,2.5866758E3,3.2778113E3,1.1818266E4,1.5284459E4,0E0,0E0,0E0,0E0,0E0,0E0,0E0,0E0],"parents":[2147483647,0,0,1,1,2,2,3,3,4,4,5,5,6,6],"right_children":[2,4,6,8,10,12,14,-1,-1,-1,-1,-1,-1,-1,-1],"split_conditions":[-8.7187874E-1,-4.3997267E-1,-4.2225975E-1,-7.884344E-1,-8.823524E-1,1.220142E-2,-6.623728E-1,-1.0306729E0,1.3993286E0,-2.2280316E0,3.7147775E-1,-6.016028E-1,1.6498508E0,1.055869E0,-2.4660662E-1],"split_indices":[0,1,2,2,2,3,3,0,0,0,0,0,0,0,0],"split_type":[0,0,0,0,0,0,0,0,0,0,0,0,0,0,0],"sum_hessian":[1.115E3,2.49E2,8.66E2,6.7E1,1.82E2,3.78E2,4.88E2,4E0,6.3E1,4E0,1.78E2,3.54E2,2.4E1,1.18E2,3.7E2],"tree_param":{"num_deleted":"0","num_feature":"4","num_nodes":"15","size_leaf_vector":"1"}},{"base_weights":[1.3174604E-2,-2.951571E0,2.5769892E0,-5.0709777E0,2.1189112E1,7.207533E0,-1.6886793E-1,9.9789715E-1,-5.8554E-1,2.6344023E0,-4.0122682E-1,4.1988993E-1,1.1445925E0,-5.43552E-1,4.880352E-1],"categories":[],"categories_nodes":[],"categories_segments":[],"categories_sizes":[],"default_left":[0,0,0,0,0,0,0,0,0,0,0,0,0,0,0],"id":23,"left_children":[1,3,5,7,9,11,13,-1,-1,-1,-1,-1,-1,-1,-1],"loss_changes":[8.490388E3,2.6610365E4,7.6173887E3,5.689663E3,5.561957E3,2.795585E3,1.0051894E4,0E0,0E0,0E0,0E0,0E0,0E0,0E0,0E0],"parents":[2147483647,0,0,1,1,2,2,3,3,4,4,5,5,6,6],"right_children":[2,4,6,8,10,12,14,-1,-1,-1,-1,-1,-1,-1,-1],"split_conditions":[-2.4076392E-1,1.6551916E-1,8.10985E-2,-1.5804496E0,7.5690377E-1,1.4765449E-1,8.3982927E-1,9.9789715E-1,-5.8554E-1,2.6344023E0,-4.0122682E-1,4.1988993E-1,1.1445925E0,-5.43552E-1,4.880352E-1],"split_indices":[3,2,2,1,0,3,2,0,0,0,0,0,0,0,0],"split_type":[0,0,0,0,0,0,0,0,0,0,0,0,0,0,0],"sum_hessian":[1.115E3,5.17E2,5.98E2,4.76E2,4.1E1,2.22E2,3.76E2,2.3E1,4.53E2,3.4E1,7E0,1.31E2,9.1E1,1.84E2,1.92E2],"tree_param":{"num_deleted":"0","num_feature":"4","num_nodes":"15","size_leaf_vector":"1"}},{"base_weights":[1.5579258E-2,-9.1314405E-1,7.128471E0,-2.2548175E-1,-7.528545E0,-2.1946464E0,7.99491E0,-1.0703695E-1,8.5257035E-1,-4.5068762E-1,-1.514181E0,9.059388E-1,-1.1395425E0],"categories":[],"categories_nodes":[],"categories_segments":[],"categories_sizes":[],"default_left":[0,0,0,0,0,0,0,0,0,0,0,0,0],"id":24,"left_children":[1,3,5,7,9,-1,11,-1,-1,-1,-1,-1,-1],"loss_changes":[7.378703E3,4.492874E3,3.4251821E3,6.6339424E3,2.0712012E3,0E0,2.7039512E3,0E0,0E0,0E0,0E0,0E0,0E0],"parents":[2147483647,0,0,1,1,2,2,3,3,4,4,6,6],"right_children":[2,4,6,8,10,-1,12,-1,-1,-1,-1,-1,-1],"split_conditions":[1.164898E0,1.4244356E0,-2.0025737E0,1.0643708E0,-1.5285398E-1,-2.1946464E0,3.9089441E0,-1.0703695E-1,8.5257035E-1,-4.5068762E-1,-1.514181E0,9.059388E-1,-1.1395425E0],"split_indices":[3,1,0,1,3,0,3,0,0,0,0,0,0],"split_type":[0,0,0,0,0,0,0,0,0,0,0,0,0],"sum_hessian":[1.115E3,9.87E2,1.28E2,8.95E2,9.2E1,3E0,1.25E2,8.17E2,7.8E1,6.7E1,2.5E1,1.19E2,6E0],"tree_param":{"num_deleted":"0","num_feature":"4","num_nodes":"13","size_leaf_vector":"1"}},{"base_weights":[1.0755306E-2,3.2869384E0,-1.8098685E0,-9.620316E0,4.43858E0,-2.0390208E0,1.8782288E1,-1.1222774E0,4.8031998E-1,-1.0025573E0,5.1264775E-1,-2.897794E-1,1.5157694E-1,1.716528E-1,2.8678436E0],"categories":[],"categories_nodes":[],"categories_segments":[],"categories_sizes":[],"default_left":[0,0,0,0,0,0,0,0,0,0,0,0,0,0,0],"id":25,"left_children":[1,3,5,7,9,11,13,-1,-1,-1,-1,-1,-1,-1,-1],"loss_changes":[6.662551E3,5.973648E3,3.4263547E3,8.166367E2,3.7029927E3,2.1749028E3,1.301855E3,0E0,0E0,0E0,0E0,0E0,0E0,0E0,0E0],"parents":[2147483647,0,0,1,1,2,2,3,3,4,4,5,5,6,6],"right_children":[2,4,6,8,10,12,14,-1,-1,-1,-1,-1,-1,-1,-1],"split_conditions":[-3.471296E-1,-2.8830704E-1,1.9942819E0,-6.663767E-2,-1.8813846E0,3.4596834E-1,-9.011815E-3,-1.1222774E0,4.8031998E-1,-1.0025573E0,5.1264775E-1,-2.897794E-1,1.5157694E-1,1.716528E-1,2.8678436E0],"split_indices":[0,3,2,2,0,2,0,0,0,0,0,0,0,0,0],"split_type":[0,0,0,0,0,0,0,0,0,0,0,0,0,0,0],"sum_hessian":[1.115E3,3.98E2,7.17E2,3.2E1,3.66E2,7.1E2,7E0,2.9E1,3E0,1.6E1,3.5E2,5.72E2,1.38E2,3E0,4E0],"tree_param":{"num_deleted":"0","num_feature":"4","num_nodes":"15","size_leaf_vector":"1"}},{"base_weights":[1.1265307E-2,-3.3199143E0,1.4750811E0,-4.676993E0,1.7582087E1,7.235967E0,3.1528154E-1,-1.0846226E0,-2.1889646E-1,1.2762924E0,2.7502837E0,5.4650605E-2,1.5530704E0,3.9449394E-1,-3.3153495E-1],"categories":[],"categories_nodes":[],"categories_segments":[],"categories_sizes":[],"default_left":[0,0,0,0,0,0,0,0,0,0,0,0,0,0,0],"id":26,"left_children":[1,3,5,7,9,11,13,-1,-1,-1,-1,-1,-1,-1,-1],"loss_changes":[5.4467734E3,9.754918E3,5.182542E3,4.9033594E3,6.529873E2,7.2048633E3,8.539211E3,0E0,0E0,0E0,0E0,0E0,0E0,0E0,0E0],"parents":[2147483647,0,0,1,1,2,2,3,3,4,4,5,5,6,6],"right_children":[2,4,6,8,10,12,14,-1,-1,-1,-1,-1,-1,-1,-1],"split_conditions":[-5.8160377E-1,1.4765449E-1,-7.6104724E-1,-8.301193E-1,-4.683188E-1,-2.460316E-1,-3.471296E-1,-1.0846226E0,-2.1889646E-1,1.2762924E0,2.7502837E0,5.4650605E-2,1.5530704E0,3.9449394E-1,-3.3153495E-1],"split_indices":[2,3,3,3,0,2,0,0,0,0,0,0,0,0,0],"split_type":[0,0,0,0,0,0,0,0,0,0,0,0,0,0,0],"sum_hessian":[1.115E3,3.4E2,7.75E2,3.2E2,2E1,1.29E2,6.46E2,9.1E1,2.29E2,1.5E1,5E0,7.2E1,5.7E1,3.23E2,3.23E2],"tree_param":{"num_deleted":"0","num_feature":"4","num_nodes":"15","size_leaf_vector":"1"}},{"base_weights":[1.4074831E-2,-2.5867483E-1,1.6666176E1,3.4010873E0,-1.2851521E0,8.8525134E-1,2.2667665E1,5.746097E-1,-7.228755E-1,-6.2772565E-2,-9.3062127E-1,-3.382487E-1,3.8647422E-1,2.443883E0,8.6175126E-1],"categories":[],"categories_nodes":[],"categories_segments":[],"categories_sizes":[],"default_left":[0,0,0,0,0,0,0,0,0,0,0,0,0,0,0],"id":27,"left_children":[1,3,5,7,9,11,13,-1,-1,-1,-1,-1,-1,-1,-1],"loss_changes":[5.073021E3,4.132943E3,1.6846973E3,6.048965E3,4.5238867E3,8.936657E1,1.129043E2,0E0,0E0,0E0,0E0,0E0,0E0,0E0,0E0],"parents":[2147483647,0,0,1,1,2,2,3,3,4,4,5,5,6,6],"right_children":[2,4,6,8,10,12,14,-1,-1,-1,-1,-1,-1,-1,-1],"split_conditions":[3.076977E0,-8.7187874E-1,-1.3445165E0,1.5405208E0,1.5151306E0,3.690082E0,1.0133208E0,5.746097E-1,-7.228755E-1,-6.2772565E-2,-9.3062127E-1,-3.382487E-1,3.8647422E-1,2.443883E0,8.6175126E-1],"split_indices":[2,0,0,2,1,2,1,0,0,0,0,0,0,0,0],"split_type":[0,0,0,0,0,0,0,0,0,0,0,0,0,0,0],"sum_hessian":[1.115E3,1.098E3,1.7E1,2.4E2,8.58E2,5E0,1.2E1,1.97E2,4.3E1,7.94E2,6.4E1,2E0,3E0,1E1,2E0],"tree_param":{"num_deleted":"0","num_feature":"4","num_nodes":"15","size_leaf_vector":"1"}},{"base_weights":[1.46500785E-2,-7.199956E-1,5.641125E0,-3.7673765E-1,-9.786797E0,1.0180554E1,1.2885104E0,-2.7921944E0,-2.6036128E-2,-1.1927781E0,1.773996E0,1.1514859E0,-2.1388571E-1,-4.0270948E-1,1.234439E0],"categories":[],"categories_nodes":[],"categories_segments":[],"categories_sizes":[],"default_left":[0,0,0,0,0,0,0,0,0,0,0,0,0,0,0],"id":28,"left_children":[1,3,5,7,9,11,13,-1,-1,-1,-1,-1,-1,-1,-1],"loss_changes":[4.6170093E3,3.0712173E3,2.5357144E3,3.047678E3,2.3332349E3,1.0602119E3,3.9872144E3,0E0,0E0,0E0,0E0,0E0,0E0,0E0,0E0],"parents":[2147483647,0,0,1,1,2,2,3,3,4,4,5,5,6,6],"right_children":[2,4,6,8,10,12,14,-1,-1,-1,-1,-1,-1,-1,-1],"split_conditions":[1.164898E0,1.7866728E0,1.5405208E0,-1.8813846E0,4.203547E-1,5.5451787E-1,2.3604565E0,-2.7921944E0,-2.6036128E-2,-1.1927781E0,1.773996E0,1.1514859E0,-2.1388571E-1,-4.0270948E-1,1.234439E0],"split_indices":[3,1,2,0,3,0,2,0,0,0,0,0,0,0,0],"split_type":[0,0,0,0,0,0,0,0,0,0,0,0,0,0,0],"sum_hessian":[1.115E3,9.87E2,1.28E2,9.52E2,3.5E1,6.2E1,6.6E1,3E0,9.49E2,3.3E1,2E0,5.6E1,6E0,4.5E1,2.1E1],"tree_param":{"num_deleted":"0","num_feature":"4","num_nodes":"15","size_leaf_vector":"1"}},{"base_weights":[1.2767505E-2,-2.2045228E0,1.677453E0,-5.993694E0,2.677766E0,1.1680678E1,-7.251727E-2,1.1040444E0,-6.8287724E-1,1.0266483E0,7.7596806E-2,2.710288E-1,2.3947208E0,3.797879E-1,-4.1617188E-1],"categories":[],"categories_nodes":[],"categories_segments":[],"categories_sizes":[],"default_left":[0,0,0,0,0,0,0,0,0,0,0,0,0,0,0],"id":29,"left_children":[1,3,5,7,9,11,13,-1,-1,-1,-1,-1,-1,-1,-1],"loss_changes":[4.1229556E3,8.877469E3,1.1169258E4,3.9160957E3,3.0227969E3,1.0388475E4,8.625603E3,0E0,0E0,0E0,0E0,0E0,0E0,0E0,0E0],"parents":[2147483647,0,0,1,1,2,2,3,3,4,4,5,5,6,6],"right_children":[2,4,6,8,10,12,14,-1,-1,-1,-1,-1,-1,-1,-1],"split_conditions":[-3.5472322E-1,-5.000085E-1,-6.623728E-1,-1.3816807E0,-1.048028E0,7.9825944E-1,-3.471296E-1,1.1040444E0,-6.8287724E-1,1.0266483E0,7.7596806E-2,2.710288E-1,2.3947208E0,3.797879E-1,-4.1617188E-1],"split_indices":[2,3,3,1,2,1,0,0,0,0,0,0,0,0,0],"split_type":[0,0,0,0,0,0,0,0,0,0,0,0,0,0,0],"sum_hessian":[1.115E3,4.78E2,6.37E2,2.69E2,2.09E2,9.4E1,5.43E2,1.2E1,2.57E2,4.1E1,1.68E2,5.5E1,3.9E1,2.79E2,2.64E2],"tree_param":{"num_deleted":"0","num_feature":"4","num_nodes":"15","size_leaf_vector":"1"}},{"base_weights":[1.5211885E-2,-2.9877636E0,1.1028564E0,-4.3334217E0,1.692941E1,6.4566092E0,2.2039098E-1,1.0474769E0,-5.455846E-1,1.9549923E-1,1.9614929E0,2.7560845E-1,1.697291E0,3.0223465E-1,-2.3831205E-1],"categories":[],"categories_nodes":[],"categories_segments":[],"categories_sizes":[],"default_left":[0,0,0,0,0,0,0,0,0,0,0,0,0,0,0],"id":30,"left_children":[1,3,5,7,9,11,13,-1,-1,-1,-1,-1,-1,-1,-1],"loss_changes":[3.6483408E3,8.0334697E3,3.8726685E3,4.6944287E3,7.257202E2,4.467457E3,5.150124E3,0E0,0E0,0E0,0E0,0E0,0E0,0E0,0E0],"parents":[2147483647,0,0,1,1,2,2,3,3,4,4,5,5,6,6],"right_children":[2,4,6,8,10,12,14,-1,-1,-1,-1,-1,-1,-1,-1],"split_conditions":[-6.639139E-1,1.4765449E-1,-8.740743E-1,-1.3816807E0,-9.168006E-1,1.0328718E0,-3.471296E-1,1.0474769E0,-5.455846E-1,1.9549923E-1,1.9614929E0,2.7560845E-1,1.697291E0,3.0223465E-1,-2.3831205E-1],"split_indices":[2,3,3,1,1,1,0,0,0,0,0,0,0,0,0],"split_type":[0,0,0,0,0,0,0,0,0,0,0,0,0,0,0],"sum_hessian":[1.115E3,2.96E2,8.19E2,2.78E2,1.8E1,1.15E2,7.04E2,1.9E1,2.59E2,3E0,1.5E1,8.6E1,2.9E1,3.39E2,3.65E2],"tree_param":{"num_deleted":"0","num_feature":"4","num_nodes":"15","size_leaf_vector":"1"}},{"base_weights":[1.7898973E-2,-2.0906843E-1,1.3874525E1,-5.179178E-3,-1.2453463E1,-5.822093E-1,1.9479593E1,1.4101276E-2,-1.7450174E0,7.4243015E-1,-1.5402203E0,-2.7233186E-1,5.061669E-1,2.1176238E0,6.765371E-1],"categories":[],"categories_nodes":[],"categories_segments":[],"categories_sizes":[],"default_left":[0,0,0,0,0,0,0,0,0,0,0,0,0,0,0],"id":31,"left_children":[1,3,5,7,9,11,13,-1,-1,-1,-1,-1,-1,-1,-1],"loss_changes":[3.5127234E3,2.7435894E3,1.4698989E3,2.7619043E3,1.1694089E3,8.628948E1,1.3716406E2,0E0,0E0,0E0,0E0,0E0,0E0,0E0,0E0],"parents":[2147483647,0,0,1,1,2,2,3,3,4,4,5,5,6,6],"right_children":[2,4,6,8,10,12,14,-1,-1,-1,-1,-1,-1,-1,-1],"split_conditions":[3.076977E0,2.03975E0,-1.3445165E0,2.476535E0,-1.8086711E0,4.8234296E0,1.0133208E0,1.4101276E-2,-1.7450174E0,7.4243015E-1,-1.5402203E0,-2.7233186E-1,5.061669E-1,2.1176238E0,6.765371E-1],"split_indices":[2,1,0,2,0,2,1,0,0,0,0,0,0,0,0],"split_type":[0,0,0,0,0,0,0,0,0,0,0,0,0,0,0],"sum_hessian":[1.115E3,1.098E3,1.7E1,1.081E3,1.7E1,5E0,1.2E1,1.073E3,8E0,2E0,1.5E1,4E0,1E0,1E1,2E0],"tree_param":{"num_deleted":"0","num_feature":"4","num_nodes":"15","size_leaf_vector":"1"}},{"base_weights":[1.655847E-2,-1.8023044E0,1.5894372E0,-3.5452669E0,1.5338063E1,5.7255416E0,-8.61334E-1,-4.2954835E-1,5.9230214E-1,-3.968091E-1,2.0523055E0,3.2887552E-2,7.283371E-1,-4.6356803E-1,2.7610257E-1],"categories":[],"categories_nodes":[],"categories_segments":[],"categories_sizes":[],"default_left":[0,0,0,0,0,0,0,0,0,0,0,0,0,0,0],"id":32,"left_children":[1,3,5,7,9,11,13,-1,-1,-1,-1,-1,-1,-1,-1],"loss_changes":[3.195574E3,1.5529636E4,6.0767827E3,3.3710825E3,4.8863438E3,1.8723843E3,5.167158E3,0E0,0E0,0E0,0E0,0E0,0E0,0E0,0E0],"parents":[2147483647,0,0,1,1,2,2,3,3,4,4,5,5,6,6],"right_children":[2,4,6,8,10,12,14,-1,-1,-1,-1,-1,-1,-1,-1],"split_conditions":[-2.4076392E-1,1.2330883E-1,8.10985E-2,1.4513178E0,-9.79028E-1,-7.884344E-1,8.3982927E-1,-4.2954835E-1,5.9230214E-1,-3.968091E-1,2.0523055E0,3.2887552E-2,7.283371E-1,-4.6356803E-1,2.7610257E-1],"split_indices":[3,2,2,0,3,2,2,0,0,0,0,0,0,0,0],"split_type":[0,0,0,0,0,0,0,0,0,0,0,0,0,0,0],"sum_hessian":[1.115E3,5.17E2,5.98E2,4.7E2,4.7E1,2.22E2,3.76E2,4.36E2,3.4E1,1E1,3.7E1,5E1,1.72E2,1.84E2,1.92E2],"tree_param":{"num_deleted":"0","num_feature":"4","num_nodes":"15","size_leaf_vector":"1"}},{"base_weights":[1.704636E-2,-1.8569398E-1,1.2394524E1,2.7524233E-1,-4.7932E0,-7.151006E-1,1.7491695E1,-3.34058E-2,7.0109344E-1,6.2595385E-1,-6.6652685E-1,-2.7263337E-1,4.6705323E-1,1.9000111E0,6.13027E-1],"categories":[],"categories_nodes":[],"categories_segments":[],"categories_sizes":[],"default_left":[0,0,0,0,0,0,0,0,0,0,0,0,0,0,0],"id":33,"left_children":[1,3,5,7,9,11,13,-1,-1,-1,-1,-1,-1,-1,-1],"loss_changes":[2.8028076E3,2.335339E3,1.2153044E3,4.1064014E3,2.1108699E3,7.772401E1,1.06315186E2,0E0,0E0,0E0,0E0,0E0,0E0,0E0,0E0],"parents":[2147483647,0,0,1,1,2,2,3,3,4,4,5,5,6,6],"right_children":[2,4,6,8,10,12,14,-1,-1,-1,-1,-1,-1,-1,-1],"split_conditions":[3.076977E0,1.4244356E0,-1.3445165E0,1.0643708E0,-1.517817E0,4.8234296E0,1.0133208E0,-3.34058E-2,7.0109344E-1,6.2595385E-1,-6.6652685E-1,-2.7263337E-1,4.6705323E-1,1.9000111E0,6.13027E-1],"split_indices":[2,1,0,1,0,2,1,0,0,0,0,0,0,0,0],"split_type":[0,0,0,0,0,0,0,0,0,0,0,0,0,0,0],"sum_hessian":[1.115E3,1.098E3,1.7E1,9.99E2,9.9E1,5E0,1.2E1,9.17E2,8.2E1,1.4E1,8.5E1,4E0,1E0,1E1,2E0],"tree_param":{"num_deleted":"0","num_feature":"4","num_nodes":"15","size_leaf_vector":"1"}},{"base_weights":[1.8330919E-2,-1.5987242E0,1.4166886E0,-3.1548076E0,1.3703651E1,5.156469E0,-7.9919386E-1,-3.8311622E-1,5.380098E-1,-3.4618685E-1,1.8311995E0,2.2140566E-1,7.9005253E-1,-5.759358E-1,1.5109567E-1],"categories":[],"categories_nodes":[],"categories_segments":[],"categories_sizes":[],"default_left":[0,0,0,0,0,0,0,0,0,0,0,0,0,0,0],"id":34,"left_children":[1,3,5,7,9,11,13,-1,-1,-1,-1,-1,-1,-1,-1],"loss_changes":[2.525788E3,1.2377731E4,4.9679824E3,2.739517E3,3.860415E3,1.783042E3,4.3286416E3,0E0,0E0,0E0,0E0,0E0,0E0,0E0,0E0],"parents":[2147483647,0,0,1,1,2,2,3,3,4,4,5,5,6,6],"right_children":[2,4,6,8,10,12,14,-1,-1,-1,-1,-1,-1,-1,-1],"split_conditions":[-2.4076392E-1,1.2330883E-1,8.10985E-2,1.4513178E0,-9.79028E-1,-7.9916525E-1,5.221965E-1,-3.8311622E-1,5.380098E-1,-3.4618685E-1,1.8311995E0,2.2140566E-1,7.9005253E-1,-5.759358E-1,1.5109567E-1],"split_indices":[3,2,2,0,3,0,2,0,0,0,0,0,0,0,0],"split_type":[0,0,0,0,0,0,0,0,0,0,0,0,0,0,0],"sum_hessian":[1.115E3,5.17E2,5.98E2,4.7E2,4.7E1,2.22E2,3.76E2,4.36E2,3.4E1,1E1,3.7E1,1.08E2,1.14E2,1.19E2,2.57E2],"tree_param":{"num_deleted":"0","num_feature":"4","num_nodes":"15","size_leaf_vector":"1"}},{"base_weights":[1.8494159E-2,-5.061997E-1,4.0369363E0,-2.6278555E0,-4.010265E-1,-1.9817673E0,4.7621865E0,5.851616E-1,-7.6997854E-2,5.7080567E-1,-1.2133037E0],"categories":[],"categories_nodes":[],"categories_segments":[],"categories_sizes":[],"default_left":[0,0,0,0,0,0,0,0,0,0,0],"id":35,"left_children":[1,3,5,-1,7,-1,9,-1,-1,-1,-1],"loss_changes":[2.3550762E3,2.6674963E3,2.326147E3,0E0,2.276827E3,0E0,2.0828218E3,0E0,0E0,0E0,0E0],"parents":[2147483647,0,0,1,1,2,2,4,4,6,6],"right_children":[2,4,6,-1,8,-1,10,-1,-1,-1,-1],"split_conditions":[1.164898E0,-1.8813846E0,-2.0025737E0,-2.6278555E0,-1.5662928E0,-1.9817673E0,3.9089441E0,5.851616E-1,-7.6997854E-2,5.7080567E-1,-1.2133037E0],"split_indices":[3,0,0,0,0,0,3,0,0,0,0],"split_type":[0,0,0,0,0,0,0,0,0,0,0],"sum_hessian":[1.115E3,9.87E2,1.28E2,3E0,9.84E2,3E0,1.25E2,5.4E1,9.3E2,1.19E2,6E0],"tree_param":{"num_deleted":"0","num_feature":"4","num_nodes":"11","size_leaf_vector":"1"}},{"base_weights":[1.2392711E-2,-2.1038985E0,9.4234496E-1,-3.122804E0,1.3570984E1,5.9582767E0,-6.6949405E-2,-2.7716967E-1,-3.0255125E0,9.445955E-1,2.230923E0,2.5953907E-1,1.4031701E0,2.127172E-1,-2.2608642E-1],"categories":[],"categories_nodes":[],"categories_segments":[],"categories_sizes":[],"default_left":[0,0,0,0,0,0,0,0,0,0,0,0,0,0,0],"id":36,"left_children":[1,3,5,7,9,11,13,-1,-1,-1,-1,-1,-1,-1,-1],"loss_changes":[2.1983262E3,5.4885664E3,3.9289392E3,2.974101E3,5.462234E2,3.4930815E3,3.119283E3,0E0,0E0,0E0,0E0,0E0,0E0,0E0,0E0],"parents":[2147483647,0,0,1,1,2,2,3,3,4,4,5,5,6,6],"right_children":[2,4,6,8,10,12,14,-1,-1,-1,-1,-1,-1,-1,-1],"split_conditions":[-5.8160377E-1,1.4765449E-1,-7.6104724E-1,6.961199E-2,-4.683188E-1,1.0328718E0,-3.471296E-1,-2.7716967E-1,-3.0255125E0,9.445955E-1,2.230923E0,2.5953907E-1,1.4031701E0,2.127172E-1,-2.2608642E-1],"split_indices":[2,3,3,3,0,1,0,0,0,0,0,0,0,0,0],"split_type":[0,0,0,0,0,0,0,0,0,0,0,0,0,0,0],"sum_hessian":[1.115E3,3.4E2,7.75E2,3.2E2,2E1,1.29E2,6.46E2,3.17E2,3E0,1.5E1,5E0,9.2E1,3.7E1,3.23E2,3.23E2],"tree_param":{"num_deleted":"0","num_feature":"4","num_nodes":"15","size_leaf_vector":"1"}},{"base_weights":[1.2517352E-2,4.4018194E-1,-4.3369565E0,-2.3867074E-1,4.3655415E0,5.1429133E0,-5.939993E0,-2.3487084E-1,1.7356154E-1,-6.2662196E-1,7.7779067E-1,-1.2025884E0,1.043727E0,-2.137699E-1,-1.2966352E0],"categories":[],"categories_nodes":[],"categories_segments":[],"categories_sizes":[],"default_left":[0,0,0,0,0,0,0,0,0,0,0,0,0,0,0],"id":37,"left_children":[1,3,5,7,9,11,13,-1,-1,-1,-1,-1,-1,-1,-1],"loss_changes":[2.0777986E3,2.7110835E3,1.550206E3,3.620006E3,5.490656E3,1.4889834E3,2.269882E3,0E0,0E0,0E0,0E0,0E0,0E0,0E0,0E0],"parents":[2147483647,0,0,1,1,2,2,3,3,4,4,5,5,6,6],"right_children":[2,4,6,8,10,12,14,-1,-1,-1,-1,-1,-1,-1,-1],"split_conditions":[1.4244356E0,8.2704294E-1,-1.517817E0,-1.555451E-1,-7.42003E-1,-1.8963262E-1,-2.4076392E-1,-2.3487084E-1,1.7356154E-1,-6.2662196E-1,7.7779067E-1,-1.2025884E0,1.043727E0,-2.137699E-1,-1.2966352E0],"split_indices":[1,1,0,3,2,3,3,0,0,0,0,0,0,0,0],"split_type":[0,0,0,0,0,0,0,0,0,0,0,0,0,0,0],"sum_hessian":[1.115E3,1.016E3,9.9E1,8.67E2,1.49E2,1.4E1,8.5E1,4.19E2,4.48E2,3.6E1,1.13E2,3E0,1.1E1,5.6E1,2.9E1],"tree_param":{"num_deleted":"0","num_feature":"4","num_nodes":"15","size_leaf_vector":"1"}},{"base_weights":[9.849381E-3,-1.5682106E-1,1.0185459E1,-1.5547534E-2,-1.7264887E1,-1.8295237E0,1.4947338E1,3.9665684E-2,-4.1499254E-1,-5.9048223E0,3.108669E-1,-3.6277497E-1,3.580803E-1,1.6415949E0,4.5799866E-1],"categories":[],"categories_nodes":[],"categories_segments":[],"categories_sizes":[],"default_left":[0,0,0,0,0,0,0,0,0,0,0,0,0,0,0],"id":38,"left_children":[1,3,5,7,9,11,13,-1,-1,-1,-1,-1,-1,-1,-1],"loss_changes":[1.8943036E3,2.655923E3,1.0571965E3,1.8609377E3,7.8450376E3,7.1364204E1,1.2274829E2,0E0,0E0,0E0,0E0,0E0,0E0,0E0,0E0],"parents":[2147483647,0,0,1,1,2,2,3,3,4,4,5,5,6,6],"right_children":[2,4,6,8,10,12,14,-1,-1,-1,-1,-1,-1,-1,-1],"split_conditions":[3.076977E0,2.476535E0,-1.3445165E0,1.4244356E0,2.5657022E-2,4.8234296E0,1.0133208E0,3.9665684E-2,-4.1499254E-1,-5.9048223E0,3.108669E-1,-3.6277497E-1,3.580803E-1,1.6415949E0,4.5799866E-1],"split_indices":[2,2,0,1,3,2,1,0,0,0,0,0,0,0,0],"split_type":[0,0,0,0,0,0,0,0,0,0,0,0,0,0,0],"sum_hessian":[1.115E3,1.098E3,1.7E1,1.09E3,8E0,5E0,1.2E1,9.92E2,9.8E1,2E0,6E0,4E0,1E0,1E1,2E0],"tree_param":{"num_deleted":"0","num_feature":"4","num_nodes":"15","size_leaf_vector":"1"}},{"base_weights":[5.3917635E-3,-1.8822211E0,9.00434E-2,-4.7132292E-1,3.2471929E0,-2.7796572E-2,-1.1680752E0,5.651098E-1,-2.3784535E-1],"categories":[],"categories_nodes":[],"categories_segments":[],"categories_sizes":[],"default_left":[0,0,0,0,0,0,0,0,0],"id":39,"left_children":[1,-1,3,5,7,-1,-1,-1,-1],"loss_changes":[1.7803616E3,0E0,1.9723474E3,2.0449688E3,2.285392E3,0E0,0E0,0E0,0E0],"parents":[2147483647,0,0,2,2,3,3,4,4],"right_children":[2,-1,4,6,8,-1,-1,-1,-1],"split_conditions":[-2.0025737E0,-1.8822211E0,9.675492E-1,2.03975E0,4.4688395E-1,-2.7796572E-2,-1.1680752E0,5.651098E-1,-2.3784535E-1],"split_indices":[0,0,3,1,1,0,0,0,0],"split_type":[0,0,0,0,0,0,0,0,0],"sum_hessian":[1.115E3,4E0,1.111E3,9.44E2,1.67E2,9.29E2,1.5E1,1.17E2,5E1],"tree_param":{"num_deleted":"0","num_feature":"4","num_nodes":"9","size_leaf_vector":"1"}},{"base_weights":[2.3861956E-3,-1.5015516E-1,9.315751E0,-1.7449712E-2,-1.6220322E1,-1.4841589E0,1.3583729E1,2.2880147E-1,-6.530481E-2,-5.5093145E0,2.7566496E-1,-4.795176E-1,1.3701439E-1,1.4844438E0,4.4332176E-1],"categories":[],"categories_nodes":[],"categories_segments":[],"categories_sizes":[],"default_left":[0,0,0,0,0,0,0,0,0,0,0,0,0,0,0],"id":40,"left_children":[1,3,5,7,9,11,13,-1,-1,-1,-1,-1,-1,-1,-1],"loss_changes":[1.5868702E3,2.343443E3,8.498484E2,1.6001903E3,6.7910674E3,6.327396E1,8.416089E1,0E0,0E0,0E0,0E0,0E0,0E0,0E0,0E0],"parents":[2147483647,0,0,1,1,2,2,3,3,4,4,5,5,6,6],"right_children":[2,4,6,8,10,12,14,-1,-1,-1,-1,-1,-1,-1,-1],"split_conditions":[3.076977E0,2.476535E0,-1.3445165E0,-8.7187874E-1,2.5657022E-2,3.690082E0,1.0133208E0,2.2880147E-1,-6.530481E-2,-5.5093145E0,2.7566496E-1,-4.795176E-1,1.3701439E-1,1.4844438E0,4.4332176E-1],"split_indices":[2,2,0,0,3,2,1,0,0,0,0,0,0,0,0],"split_type":[0,0,0,0,0,0,0,0,0,0,0,0,0,0,0],"sum_hessian":[1.115E3,1.098E3,1.7E1,1.09E3,8E0,5E0,1.2E1,2.35E2,8.55E2,2E0,6E0,2E0,3E0,1E1,2E0],"tree_param":{"num_deleted":"0","num_feature":"4","num_nodes":"15","size_leaf_vector":"1"}},{"base_weights":[-9.736263E-4,-1.7499475E1,7.770756E-2,-1.9237431E0,-5.273827E-1,-1.6364145E0,8.3475155E-1,-2.527879E-1,1.2068176E0,5.489909E-1,-1.0771384E-2],"categories":[],"categories_nodes":[],"categories_segments":[],"categories_sizes":[],"default_left":[0,0,0,0,0,0,0,0,0,0,0],"id":41,"left_children":[1,3,5,-1,-1,7,9,-1,-1,-1,-1],"loss_changes":[1.5378717E3,4.783325E0,1.4443704E3,0E0,0E0,4.1965557E3,3.387606E3,0E0,0E0,0E0,0E0],"parents":[2147483647,0,0,1,1,2,2,5,5,6,6],"right_children":[2,4,6,-1,-1,8,10,-1,-1,-1,-1],"split_conditions":[-2.0025737E0,-5.5052536E-3,-5.8160377E-1,-1.9237431E0,-5.273827E-1,1.4765449E-1,-7.6104724E-1,-2.527879E-1,1.2068176E0,5.489909E-1,-1.0771384E-2],"split_indices":[0,1,2,0,0,3,3,0,0,0,0],"split_type":[0,0,0,0,0,0,0,0,0,0,0],"sum_hessian":[1.115E3,4E0,1.111E3,3E0,1E0,3.4E2,7.71E2,3.2E2,2E1,1.29E2,6.42E2],"tree_param":{"num_deleted":"0","num_feature":"4","num_nodes":"11","size_leaf_vector":"1"}},{"base_weights":[-1.7351643E-3,-1.6239752E0,7.1279064E-2,-3.3421972E-1,3.2471206E0,-2.6390352E0,-2.5452165E-2,6.697743E-1,-1.0474529E-1],"categories":[],"categories_nodes":[],"categories_segments":[],"categories_sizes":[],"default_left":[0,0,0,0,0,0,0,0,0],"id":42,"left_children":[1,-1,3,5,7,-1,-1,-1,-1],"loss_changes":[1.3242941E3,0E0,1.4331187E3,2.0429111E3,1.8742037E3,0E0,0E0,0E0,0E0],"parents":[2147483647,0,0,2,2,3,3,4,4],"right_children":[2,-1,4,6,8,-1,-1,-1,-1],"split_conditions":[-2.0025737E0,-1.6239752E0,1.164898E0,-1.8813846E0,1.7220253E0,-2.6390352E0,-2.5452165E-2,6.697743E-1,-1.0474529E-1],"split_indices":[0,0,3,0,2,0,0,0,0],"split_type":[0,0,0,0,0,0,0,0,0],"sum_hessian":[1.115E3,4E0,1.111E3,9.86E2,1.25E2,2E0,9.84E2,6.9E1,5.6E1],"tree_param":{"num_deleted":"0","num_feature":"4","num_nodes":"9","size_leaf_vector":"1"}},{"base_weights":[-4.8980336E-3,-1.4516287E-1,8.559321E0,-2.15607E-2,-1.5112362E1,-1.3097687E0,1.2455876E1,1.9136446E-2,-5.926865E-1,-5.1396117E0,2.5967276E-1,-2.975699E-1,3.509941E-1,1.3571123E0,4.214681E-1],"categories":[],"categories_nodes":[],"categories_segments":[],"categories_sizes":[],"default_left":[0,0,0,0,0,0,0,0,0,0,0,0,0,0,0],"id":43,"left_children":[1,3,5,7,9,11,13,-1,-1,-1,-1,-1,-1,-1,-1],"loss_changes":[1.3418473E3,2.0328E3,7.0851245E2,1.3729442E3,5.9164326E3,5.8620327E1,6.2284424E1,0E0,0E0,0E0,0E0,0E0,0E0,0E0,0E0],"parents":[2147483647,0,0,1,1,2,2,3,3,4,4,5,5,6,6],"right_children":[2,4,6,8,10,12,14,-1,-1,-1,-1,-1,-1,-1,-1],"split_conditions":[3.076977E0,2.476535E0,-1.3445165E0,1.7866728E0,2.5657022E-2,4.8234296E0,1.0133208E0,1.9136446E-2,-5.926865E-1,-5.1396117E0,2.5967276E-1,-2.975699E-1,3.509941E-1,1.3571123E0,4.214681E-1],"split_indices":[2,2,0,1,3,2,1,0,0,0,0,0,0,0,0],"split_type":[0,0,0,0,0,0,0,0,0,0,0,0,0,0,0],"sum_hessian":[1.115E3,1.098E3,1.7E1,1.09E3,8E0,5E0,1.2E1,1.053E3,3.7E1,2E0,6E0,4E0,1E0,1E1,2E0],"tree_param":{"num_deleted":"0","num_feature":"4","num_nodes":"15","size_leaf_vector":"1"}},{"base_weights":[-7.6515E-3,-1.2286696E0,8.6961484E-1,-2.6078188E0,1.3973475E1,3.6866775E0,-1.1164048E0,7.9716057E-1,-3.2267806E-1,1.6904564E0,-4.9649316E-1,1.1805465E0,2.8796142E-1,-4.8515883E-1,6.7617886E-2],"categories":[],"categories_nodes":[],"categories_segments":[],"categories_sizes":[],"default_left":[0,0,0,0,0,0,0,0,0,0,0,0,0,0,0],"id":44,"left_children":[1,3,5,7,9,11,13,-1,-1,-1,-1,-1,-1,-1,-1],"loss_changes":[1.1964808E3,9.827575E3,3.6406975E3,2.8349246E3,2.2488242E3,1.7285935E3,2.5610107E3,0E0,0E0,0E0,0E0,0E0,0E0,0E0,0E0],"parents":[2147483647,0,0,1,1,2,2,3,3,4,4,5,5,6,6],"right_children":[2,4,6,8,10,12,14,-1,-1,-1,-1,-1,-1,-1,-1],"split_conditions":[-3.3943835E-1,1.6551916E-1,8.10985E-2,-1.5804496E0,7.5690377E-1,-1.048028E0,5.221965E-1,7.9716057E-1,-3.2267806E-1,1.6904564E0,-4.9649316E-1,1.1805465E0,2.8796142E-1,-4.8515883E-1,6.7617886E-2],"split_indices":[3,2,2,1,0,2,2,0,0,0,0,0,0,0,0],"split_type":[0,0,0,0,0,0,0,0,0,0,0,0,0,0,0],"sum_hessian":[1.115E3,4.66E2,6.49E2,4.28E2,3.8E1,2.68E2,3.81E2,2.3E1,4.05E2,3.3E1,5E0,2.3E1,2.45E2,1.23E2,2.58E2],"tree_param":{"num_deleted":"0","num_feature":"4","num_nodes":"15","size_leaf_vector":"1"}},{"base_weights":[-4.449629E-3,-8.162174E0,1.2162834E-1,-2.197679E0,-3.6321285E0,-3.2712045E-1,2.819063E0,1.6091988E0,-1.0474342E0,-1.6385276E-2,-9.786407E-1,8.4147453E-1,1.08468845E-1],"categories":[],"categories_nodes":[],"categories_segments":[],"categories_sizes":[],"default_left":[0,0,0,0,0,0,0,0,0,0,0,0,0],"id":45,"left_children":[1,3,5,-1,7,9,11,-1,-1,-1,-1,-1,-1],"loss_changes":[1.1488092E3,9.8405164E2,1.3324397E3,0E0,2.057945E3,1.4563062E3,1.5145592E3,0E0,0E0,0E0,0E0,0E0,0E0],"parents":[2147483647,0,0,1,1,2,2,4,4,5,5,6,6],"right_children":[2,4,6,-1,8,10,12,-1,-1,-1,-1,-1,-1],"split_conditions":[-1.8813846E0,1.164898E0,9.675492E-1,-2.197679E0,1.0645993E0,2.03975E0,2.71045E-1,1.6091988E0,-1.0474342E0,-1.6385276E-2,-9.786407E-1,8.4147453E-1,1.08468845E-1],"split_indices":[0,3,3,0,2,1,2,0,0,0,0,0,0],"split_type":[0,0,0,0,0,0,0,0,0,0,0,0,0],"sum_hessian":[1.115E3,1.6E1,1.099E3,3E0,1.3E1,9.43E2,1.56E2,3E0,1E1,9.28E2,1.5E1,3.6E1,1.2E2],"tree_param":{"num_deleted":"0","num_feature":"4","num_nodes":"13","size_leaf_vector":"1"}},{"base_weights":[-5.509274E-3,-1.1344023E-1,9.160743E0,-3.5028707E-2,-1.2396642E1,1.0069275E-1,1.3176244E1,-1.8485327E-1,4.6094116E-2,-1.6858727E0,7.187935E-1,-3.789917E-1,3.9577383E-1,1.4170216E0,2.612236E-1],"categories":[],"categories_nodes":[],"categories_segments":[],"categories_sizes":[],"default_left":[0,0,0,0,0,0,0,0,0,0,0,0,0,0,0],"id":46,"left_children":[1,3,5,7,9,11,13,-1,-1,-1,-1,-1,-1,-1,-1],"loss_changes":[1.105123E3,1.0628773E3,4.7162158E2,9.8844073E2,7.328956E2,9.0030785E1,5.748694E1,0E0,0E0,0E0,0E0,0E0,0E0,0E0,0E0],"parents":[2147483647,0,0,1,1,2,2,3,3,4,4,5,5,6,6],"right_children":[2,4,6,8,10,12,14,-1,-1,-1,-1,-1,-1,-1,-1],"split_conditions":[3.2700894E0,3.9089441E0,-1.3445165E0,-8.0215275E-1,8.2704294E-1,1.098585E0,1.0133208E0,-1.8485327E-1,4.6094116E-2,-1.6858727E0,7.187935E-1,-3.789917E-1,3.9577383E-1,1.4170216E0,2.612236E-1],"split_indices":[2,3,0,2,1,1,1,0,0,0,0,0,0,0,0],"split_type":[0,0,0,0,0,0,0,0,0,0,0,0,0,0,0],"sum_hessian":[1.115E3,1.103E3,1.2E1,1.097E3,6E0,4E0,8E0,2.35E2,8.62E2,5E0,1E0,2E0,2E0,7E0,1E0],"tree_param":{"num_deleted":"0","num_feature":"4","num_nodes":"15","size_leaf_vector":"1"}},{"base_weights":[-4.432531E-3,-1.3978856E1,5.8406092E-2,-1.5603142E0,-3.7408563E-1,-1.0253772E0,8.771345E-1,-3.3188674E-1,1.9282785E-1,8.252859E-1,-4.22071E-2],"categories":[],"categories_nodes":[],"categories_segments":[],"categories_sizes":[],"default_left":[0,0,0,0,0,0,0,0,0,0,0],"id":47,"left_children":[1,3,5,-1,-1,7,9,-1,-1,-1,-1],"loss_changes":[9.8081354E2,2.4778076E1,9.876039E2,0E0,0E0,3.2512317E3,6.0788403E3,0E0,0E0,0E0,0E0],"parents":[2147483647,0,0,1,1,2,2,5,5,6,6],"right_children":[2,4,6,-1,-1,8,10,-1,-1,-1,-1],"split_conditions":[-2.0025737E0,-5.5052536E-3,-3.5472322E-1,-1.5603142E0,-3.7408563E-1,-5.000085E-1,-6.623728E-1,-3.3188674E-1,1.9282785E-1,8.252859E-1,-4.22071E-2],"split_indices":[0,1,2,0,0,3,3,0,0,0,0],"split_type":[0,0,0,0,0,0,0,0,0,0,0],"sum_hessian":[1.115E3,4E0,1.111E3,3E0,1E0,4.78E2,6.33E2,2.69E2,2.09E2,9.4E1,5.39E2],"tree_param":{"num_deleted":"0","num_feature":"4","num_nodes":"11","size_leaf_vector":"1"}},{"base_weights":[-5.145873E-3,2.8140125E-1,-2.9192786E0,-4.8808178E-1,2.961488E0,4.9729934E0,-4.2618923E0,-2.099448E-1,1.4767148E-1,-3.6945516E-1,5.0604516E-1,-1.3600082E0,8.8765496E-1,-9.673929E-2,-1.0379379E0],"categories":[],"categories_nodes":[],"categories_segments":[],"categories_sizes":[],"default_left":[0,0,0,0,0,0,0,0,0,0,0,0,0,0,0],"id":48,"left_children":[1,3,5,7,9,11,13,-1,-1,-1,-1,-1,-1,-1,-1],"loss_changes":[9.3272205E2,2.0987856E3,1.0808219E3,2.5074116E3,3.190064E3,1.2082375E3,1.7232079E3,0E0,0E0,0E0,0E0,0E0,0E0,0E0,0E0],"parents":[2147483647,0,0,1,1,2,2,3,3,4,4,5,5,6,6],"right_children":[2,4,6,8,10,12,14,-1,-1,-1,-1,-1,-1,-1,-1],"split_conditions":[1.4244356E0,6.098092E-1,-1.517817E0,-1.9194987E-2,-7.42003E-1,1.5151306E0,-2.4076392E-1,-2.099448E-1,1.4767148E-1,-3.6945516E-1,5.0604516E-1,-1.3600082E0,8.8765496E-1,-9.673929E-2,-1.0379379E0],"split_indices":[1,1,0,3,2,1,3,0,0,0,0,0,0,0,0],"split_type":[0,0,0,0,0,0,0,0,0,0,0,0,0,0,0],"sum_hessian":[1.115E3,1.016E3,9.9E1,7.9E2,2.26E2,1.4E1,8.5E1,4.34E2,3.56E2,5.4E1,1.72E2,2E0,1.2E1,5.6E1,2.9E1],"tree_param":{"num_deleted":"0","num_feature":"4","num_nodes":"15","size_leaf_vector":"1"}},{"base_weights":[-6.0048597E-3,-5.7969704E0,1.4835544E-1,2.0877986E0,-1.1485501E1,7.4857855E0,-8.825211E-2,-1.5448195E0,1.159804E0,-1.3680686E0,-5.180883E-1,2.189178E0,5.711301E-2,-3.387584E0,7.257204E-3],"categories":[],"categories_nodes":[],"categories_segments":[],"categories_sizes":[],"default_left":[0,0,0,0,0,0,0,0,0,0,0,0,0,0,0],"id":49,"left_children":[1,3,5,7,9,11,13,-1,-1,-1,-1,-1,-1,-1,-1],"loss_changes":[9.984471E2,1.3247091E3,1.889528E3,2.3471985E3,1.6439868E2,3.3743218E3,5.73518E3,0E0,0E0,0E0,0E0,0E0,0E0,0E0,0E0],"parents":[2147483647,0,0,1,1,2,2,3,3,4,4,5,5,6,6],"right_children":[2,4,6,8,10,12,14,-1,-1,-1,-1,-1,-1,-1,-1],"split_conditions":[-1.7601954E0,1.0645993E0,-1.6874819E0,5.675726E-1,2.5194287E0,-1.1786941E-1,-1.6753631E0,-1.5448195E0,1.159804E0,-1.3680686E0,-5.180883E-1,2.189178E0,5.711301E-2,-3.387584E0,7.257204E-3],"split_indices":[0,2,0,2,3,3,0,0,0,0,0,0,0,0,0],"split_type":[0,0,0,0,0,0,0,0,0,0,0,0,0,0,0],"sum_hessian":[1.115E3,2.8E1,1.087E3,1.2E1,1.6E1,3.3E1,1.054E3,4E0,8E0,1.1E1,5E0,1E1,2.3E1,4E0,1.05E3],"tree_param":{"num_deleted":"0","num_feature":"4","num_nodes":"15","size_leaf_vector":"1"}},{"base_weights":[-8.45553E-3,1.2352775E1,-7.520524E-2,-5.020579E-1,2.2294595E0,5.455169E0,-2.1798685E-1,-1.7015317E-2,1.5597765E0,-6.0992204E-3,-1.423776E0],"categories":[],"categories_nodes":[],"categories_segments":[],"categories_sizes":[],"default_left":[0,0,0,0,0,0,0,0,0,0,0],"id":50,"left_children":[1,3,5,-1,-1,7,9,-1,-1,-1,-1],"loss_changes":[9.2175006E2,1.1482686E3,8.784746E2,0E0,0E0,1.6002042E3,2.3850476E3,0E0,0E0,0E0,0E0],"parents":[2147483647,0,0,1,1,2,2,5,5,6,6],"right_children":[2,4,6,-1,-1,8,10,-1,-1,-1,-1],"split_conditions":[-1.5020025E0,6.393503E-1,-1.7433748E0,-5.020579E-1,2.2294595E0,1.6730939E0,1.7542907E0,-1.7015317E-2,1.5597765E0,-6.0992204E-3,-1.423776E0],"split_indices":[3,0,1,0,0,0,0,0,0,0,0],"split_type":[0,0,0,0,0,0,0,0,0,0,0],"sum_hessian":[1.115E3,5E0,1.11E3,2E0,3E0,2.7E1,1.083E3,1.8E1,9E0,1.072E3,1.1E1],"tree_param":{"num_deleted":"0","num_feature":"4","num_nodes":"11","size_leaf_vector":"1"}},{"base_weights":[-5.962331E-3,1.0545095E-1,-6.808031E0,-6.2188935E0,2.6449275E-1,-9.138076E0,3.6316452E0,1.0310402E0,-7.25119E-1,7.912261E-1,2.180224E-3,-1.3282064E0,-2.5046524E-1,1.3389796E0,-1.2821404E0],"categories":[],"categories_nodes":[],"categories_segments":[],"categories_sizes":[],"default_left":[0,0,0,0,0,0,0,0,0,0,0,0,0,0,0],"id":51,"left_children":[1,3,5,7,9,11,13,-1,-1,-1,-1,-1,-1,-1,-1],"loss_changes":[8.4646826E2,1.1070576E3,4.7103473E2,5.3546704E2,1.9913591E3,3.7906543E2,8.1388135E2,0E0,0E0,0E0,0E0,0E0,0E0,0E0,0E0],"parents":[2147483647,0,0,1,1,2,2,3,3,4,4,5,5,6,6],"right_children":[2,4,6,8,10,12,14,-1,-1,-1,-1,-1,-1,-1,-1],"split_conditions":[2.03975E0,-1.7601954E0,1.6918345E-1,-7.1034527E-1,-1.6874819E0,-6.00415E-1,2.259156E0,1.0310402E0,-7.25119E-1,7.912261E-1,2.180224E-3,-1.3282064E0,-2.5046524E-1,1.3389796E0,-1.2821404E0],"split_indices":[1,0,3,2,0,0,1,0,0,0,0,0,0,0,0],"split_type":[0,0,0,0,0,0,0,0,0,0,0,0,0,0,0],"sum_hessian":[1.115E3,1.098E3,1.7E1,2.6E1,1.072E3,1.4E1,3E0,1E0,2.5E1,3.2E1,1.04E3,8E0,6E0,2E0,1E0],"tree_param":{"num_deleted":"0","num_feature":"4","num_nodes":"15","size_leaf_vector":"1"}},{"base_weights":[-5.7464656E-3,-9.999944E-2,7.998948E0,2.7074001E-3,-8.096654E0,-2.7975768E-1,1.1709457E1,1.7171535E-1,-4.6997014E-2,-4.7987933E0,2.5508863E-1,-3.848704E-1,3.3824414E-1,6.2243193E-1,1.4852704E0],"categories":[],"categories_nodes":[],"categories_segments":[],"categories_sizes":[],"default_left":[0,0,0,0,0,0,0,0,0,0,0,0,0,0,0],"id":52,"left_children":[1,3,5,7,9,11,13,-1,-1,-1,-1,-1,-1,-1,-1],"loss_changes":[8.4278424E2,9.0674945E2,4.0261255E2,8.849318E2,6.068827E3,7.836897E1,6.2722412E1,0E0,0E0,0E0,0E0,0E0,0E0,0E0,0E0],"parents":[2147483647,0,0,1,1,2,2,3,3,4,4,5,5,6,6],"right_children":[2,4,6,8,10,12,14,-1,-1,-1,-1,-1,-1,-1,-1],"split_conditions":[3.2700894E0,2.476535E0,-1.3445165E0,-8.7187874E-1,2.5657022E-2,1.098585E0,1.2546021E0,1.7171535E-1,-4.6997014E-2,-4.7987933E0,2.5508863E-1,-3.848704E-1,3.3824414E-1,6.2243193E-1,1.4852704E0],"split_indices":[2,2,0,0,3,1,3,0,0,0,0,0,0,0,0],"split_type":[0,0,0,0,0,0,0,0,0,0,0,0,0,0,0],"sum_hessian":[1.115E3,1.103E3,1.2E1,1.09E3,1.3E1,4E0,8E0,2.35E2,8.55E2,2E0,1.1E1,2E0,2E0,4E0,4E0],"tree_param":{"num_deleted":"0","num_feature":"4","num_nodes":"15","size_leaf_vector":"1"}},{"base_weights":[-7.285723E-3,6.1089654E-2,-1.0848626E1,-7.610163E-2,8.388256E0,-1.48264265E1,6.5090865E-1,7.3180723E-1,-1.7882315E-2,-1.9040146E-1,1.0573643E0,-2.0701818E0,-6.713276E-1],"categories":[],"categories_nodes":[],"categories_segments":[],"categories_sizes":[],"default_left":[0,0,0,0,0,0,0,0,0,0,0,0,0],"id":53,"left_children":[1,3,5,7,9,11,-1,-1,-1,-1,-1,-1,-1],"loss_changes":[8.27932E2,1.2687186E3,5.7982513E2,8.3148663E2,4.2499927E2,1.4703064E2,0E0,0E0,0E0,0E0,0E0,0E0,0E0],"parents":[2147483647,0,0,1,1,2,2,3,3,4,4,5,5],"right_children":[2,4,6,8,10,12,-1,-1,-1,-1,-1,-1,-1],"split_conditions":[3.9089441E0,2.5194287E0,8.2704294E-1,-1.4293422E0,-1.7601954E0,-2.1187727E-1,6.5090865E-1,7.3180723E-1,-1.7882315E-2,-1.9040146E-1,1.0573643E0,-2.0701818E0,-6.713276E-1],"split_indices":[3,3,1,3,0,1,0,0,0,0,0,0,0],"split_type":[0,0,0,0,0,0,0,0,0,0,0,0,0],"sum_hessian":[1.115E3,1.109E3,6E0,1.092E3,1.7E1,5E0,1E0,1.4E1,1.078E3,3E0,1.4E1,2E0,3E0],"tree_param":{"num_deleted":"0","num_feature":"4","num_nodes":"13","size_leaf_vector":"1"}},{"base_weights":[-7.0128287E-3,-2.2618517E-1,3.038115E0,-8.102396E0,-4.8362583E-2,1.1102684E1,-1.2162232E0,1.5212036E0,-1.1047201E0,-2.1878736E-1,4.761375E-2,1.9256543E0,7.0851296E-1,2.3120199E-1,-1.3935632E0],"categories":[],"categories_nodes":[],"categories_segments":[],"categories_sizes":[],"default_left":[0,0,0,0,0,0,0,0,0,0,0,0,0,0,0],"id":54,"left_children":[1,3,5,7,9,11,13,-1,-1,-1,-1,-1,-1,-1,-1],"loss_changes":[7.4551434E2,1.4590001E3,2.5867087E3,1.7471487E3,1.1456588E3,7.1528784E2,2.276078E3,0E0,0E0,0E0,0E0,0E0,0E0,0E0,0E0],"parents":[2147483647,0,0,1,1,2,2,3,3,4,4,5,5,6,6],"right_children":[2,4,6,8,10,12,14,-1,-1,-1,-1,-1,-1,-1,-1],"split_conditions":[1.3907232E0,-1.5261412E0,-1.3816807E0,-3.8712204E-1,-8.0215275E-1,-1.0374753E0,1.7542907E0,1.5212036E0,-1.1047201E0,-2.1878736E-1,4.761375E-2,1.9256543E0,7.0851296E-1,2.3120199E-1,-1.3935632E0],"split_indices":[0,1,1,0,2,2,0,0,0,0,0,0,0,0,0],"split_type":[0,0,0,0,0,0,0,0,0,0,0,0,0,0,0],"sum_hessian":[1.115E3,1.041E3,7.4E1,2.2E1,1.019E3,2.5E1,4.9E1,2E0,2E1,2E2,8.19E2,7E0,1.8E1,3.9E1,1E1],"tree_param":{"num_deleted":"0","num_feature":"4","num_nodes":"15","size_leaf_vector":"1"}},{"base_weights":[-4.7719744E-3,2.5144145E-1,-2.610415E0,6.333883E-2,9.625191E0,-7.159313E-1,-6.435096E0,1.4728543E-2,-1.3840381E0,-1.3252133E0,1.4441903E0,-2.1598206E-1,1.7909039E0,-1.0416449E0,3.76366E-1],"categories":[],"categories_nodes":[],"categories_segments":[],"categories_sizes":[],"default_left":[0,0,0,0,0,0,0,0,0,0,0,0,0,0,0],"id":55,"left_children":[1,3,5,7,9,11,13,-1,-1,-1,-1,-1,-1,-1,-1],"loss_changes":[7.456988E2,1.7925922E3,7.1997235E2,1.1668741E3,2.3952556E3,1.8673632E3,1.3791637E3,0E0,0E0,0E0,0E0,0E0,0E0,0E0,0E0],"parents":[2147483647,0,0,1,1,2,2,3,3,4,4,5,5,6,6],"right_children":[2,4,6,8,10,12,14,-1,-1,-1,-1,-1,-1,-1,-1],"split_conditions":[1.4244356E0,1.3522054E0,-1.5285398E-1,3.9089441E0,-1.2010404E0,-1.7169182E-1,7.3162764E-1,1.4728543E-2,-1.3840381E0,-1.3252133E0,1.4441903E0,-2.1598206E-1,1.7909039E0,-1.0416449E0,3.76366E-1],"split_indices":[1,1,3,3,2,3,3,0,0,0,0,0,0,0,0],"split_type":[0,0,0,0,0,0,0,0,0,0,0,0,0,0,0],"sum_hessian":[1.115E3,1.016E3,9.9E1,9.97E2,1.9E1,6.7E1,3.2E1,9.92E2,5E0,3E0,1.6E1,6.3E1,4E0,2.3E1,9E0],"tree_param":{"num_deleted":"0","num_feature":"4","num_nodes":"15","size_leaf_vector":"1"}},{"base_weights":[-4.5970315E-3,1.0750359E1,-6.267546E-2,-5.1854247E-1,2.0014606E1,-1.0191098E0,6.1722505E-1,5.8474886E-1,2.2787817E0,-2.1790205E-1,1.161733E0,3.0865055E-1,-1.1232295E-1],"categories":[],"categories_nodes":[],"categories_segments":[],"categories_sizes":[],"default_left":[0,0,0,0,0,0,0,0,0,0,0,0,0],"id":56,"left_children":[1,3,5,-1,7,9,11,-1,-1,-1,-1,-1,-1],"loss_changes":[6.977619E2,9.895826E2,7.2309033E2,0E0,2.3901978E1,6.796913E3,2.7969524E3,0E0,0E0,0E0,0E0,0E0,0E0],"parents":[2147483647,0,0,1,1,2,2,4,4,5,5,6,6],"right_children":[2,4,6,-1,8,10,12,-1,-1,-1,-1,-1,-1],"split_conditions":[-1.5020025E0,6.393503E-1,-3.3943835E-1,-5.1854247E-1,6.635881E-1,1.6551916E-1,8.10985E-2,5.8474886E-1,2.2787817E0,-2.1790205E-1,1.161733E0,3.0865055E-1,-1.1232295E-1],"split_indices":[3,0,3,0,0,2,2,0,0,0,0,0,0],"split_type":[0,0,0,0,0,0,0,0,0,0,0,0,0],"sum_hessian":[1.115E3,5E0,1.11E3,2E0,3E0,4.61E2,6.49E2,1E0,2E0,4.23E2,3.8E1,2.68E2,3.81E2],"tree_param":{"num_deleted":"0","num_feature":"4","num_nodes":"13","size_leaf_vector":"1"}},{"base_weights":[-1.0148291E-3,-8.645404E-2,7.254824E0,1.26684485E-2,-7.804753E0,-2.0680848E-1,1.0594084E1,2.666542E-2,-2.535014E-1,-4.4743495E0,2.0803288E-1,-3.546875E-1,3.2021943E-1,1.1425657E0,1.9707489E-1],"categories":[],"categories_nodes":[],"categories_segments":[],"categories_sizes":[],"default_left":[0,0,0,0,0,0,0,0,0,0,0,0,0,0,0],"id":57,"left_children":[1,3,5,7,9,11,13,-1,-1,-1,-1,-1,-1,-1,-1],"loss_changes":[6.924726E2,8.447218E2,3.2610333E2,7.066347E2,5.2050757E3,6.828926E1,4.202124E1,0E0,0E0,0E0,0E0,0E0,0E0,0E0,0E0],"parents":[2147483647,0,0,1,1,2,2,3,3,4,4,5,5,6,6],"right_children":[2,4,6,8,10,12,14,-1,-1,-1,-1,-1,-1,-1,-1],"split_conditions":[3.2700894E0,2.476535E0,-1.3445165E0,1.4244356E0,2.5657022E-2,1.098585E0,1.0133208E0,2.666542E-2,-2.535014E-1,-4.4743495E0,2.0803288E-1,-3.546875E-1,3.2021943E-1,1.1425657E0,1.9707489E-1],"split_indices":[2,2,0,1,3,1,1,0,0,0,0,0,0,0,0],"split_type":[0,0,0,0,0,0,0,0,0,0,0,0,0,0,0],"sum_hessian":[1.115E3,1.103E3,1.2E1,1.09E3,1.3E1,4E0,8E0,9.92E2,9.8E1,2E0,1.1E1,2E0,2E0,7E0,1E0],"tree_param":{"num_deleted":"0","num_feature":"4","num_nodes":"15","size_leaf_vector":"1"}},{"base_weights":[-3.770907E-3,-4.737891E0,1.2241775E-1,1.9620643E0,-9.582687E0,-1.3948482E-1,5.678668E0,-1.4435115E0,1.0853602E0,-1.1836356E0,-3.478236E-1,3.539194E-1,-3.763123E-2,7.322532E-1,-1.025184E0],"categories":[],"categories_nodes":[],"categories_segments":[],"categories_sizes":[],"default_left":[0,0,0,0,0,0,0,0,0,0,0,0,0,0,0],"id":58,"left_children":[1,3,5,7,9,11,13,-1,-1,-1,-1,-1,-1,-1,-1],"loss_changes":[6.672697E2,9.601394E2,1.5840454E3,2.0520225E3,1.9270642E2,9.073926E2,1.3582614E3,0E0,0E0,0E0,0E0,0E0,0E0,0E0,0E0],"parents":[2147483647,0,0,1,1,2,2,3,3,4,4,5,5,6,6],"right_children":[2,4,6,8,10,12,14,-1,-1,-1,-1,-1,-1,-1,-1],"split_conditions":[-1.7601954E0,1.0645993E0,1.7300334E0,5.675726E-1,2.5194287E0,-1.5662928E0,3.9089441E0,-1.4435115E0,1.0853602E0,-1.1836356E0,-3.478236E-1,3.539194E-1,-3.763123E-2,7.322532E-1,-1.025184E0],"split_indices":[0,2,3,2,3,0,3,0,0,0,0,0,0,0,0],"split_type":[0,0,0,0,0,0,0,0,0,0,0,0,0,0,0],"sum_hessian":[1.115E3,2.8E1,1.087E3,1.2E1,1.6E1,1.039E3,4.8E1,4E0,8E0,1.1E1,5E0,6.2E1,9.77E2,4.4E1,4E0],"tree_param":{"num_deleted":"0","num_feature":"4","num_nodes":"15","size_leaf_vector":"1"}},{"base_weights":[-5.06816E-3,-1.4016795E-1,4.432909E0,-6.8539107E-1,1.1296618E0,7.4010477E0,-1.893636E0,-2.3642933E-1,1.2117603E-1,3.1031018E-1,-2.2394149E-1,1.6357657E0,2.7835646E-1],"categories":[],"categories_nodes":[],"categories_segments":[],"categories_sizes":[],"default_left":[0,0,0,0,0,0,0,0,0,0,0,0,0],"id":59,"left_children":[1,3,5,7,9,11,-1,-1,-1,-1,-1,-1,-1],"loss_changes":[6.697412E2,7.512714E2,2.4291355E3,2.42038E3,2.1744158E3,1.1951771E3,0E0,0E0,0E0,0E0,0E0,0E0,0E0],"parents":[2147483647,0,0,1,1,2,2,3,3,4,4,5,5],"right_children":[2,4,6,8,10,12,-1,-1,-1,-1,-1,-1,-1],"split_conditions":[1.5519048E0,6.098092E-1,-5.105736E-1,-1.9194987E-2,-1.08899005E-1,-1.0374753E0,-1.893636E0,-2.3642933E-1,1.2117603E-1,3.1031018E-1,-2.2394149E-1,1.6357657E0,2.7835646E-1],"split_indices":[0,1,1,3,3,2,0,0,0,0,0,0,0],"split_type":[0,0,0,0,0,0,0,0,0,0,0,0,0],"sum_hessian":[1.115E3,1.083E3,3.2E1,7.58E2,3.25E2,2.9E1,3E0,4.02E2,3.56E2,2.05E2,1.2E2,9E0,2E1],"tree_param":{"num_deleted":"0","num_feature":"4","num_nodes":"13","size_leaf_vector":"1"}},{"base_weights":[-4.569115E-3,6.616142E0,-9.4683535E-2,1.230545E1,-7.2235656E0,-7.6769395E0,3.1192308E-2,1.9661915E0,7.0890373E-1,-8.293514E-1,-1.4718857E-1,-2.3673794E0,-1.4154243E-1,1.2465352E0,-8.439578E-3],"categories":[],"categories_nodes":[],"categories_segments":[],"categories_sizes":[],"default_left":[0,0,0,0,0,0,0,0,0,0,0,0,0,0,0],"id":60,"left_children":[1,3,5,7,9,11,13,-1,-1,-1,-1,-1,-1,-1,-1],"loss_changes":[6.6645605E2,1.2699647E3,1.0520135E3,2.827339E2,1.8562897E1,1.7694532E3,1.5604583E3,0E0,0E0,0E0,0E0,0E0,0E0,0E0,0E0],"parents":[2147483647,0,0,1,1,2,2,3,3,4,4,5,5,6,6],"right_children":[2,4,6,8,10,12,14,-1,-1,-1,-1,-1,-1,-1,-1],"split_conditions":[-1.4293422E0,-1.4050576E-1,-1.3459175E0,-4.88741E-1,6.393503E-1,-4.8557526E-1,-1.316315E0,1.9661915E0,7.0890373E-1,-8.293514E-1,-1.4718857E-1,-2.3673794E0,-1.4154243E-1,1.2465352E0,-8.439578E-3],"split_indices":[3,2,3,2,0,2,3,0,0,0,0,0,0,0,0],"split_type":[0,0,0,0,0,0,0,0,0,0,0,0,0,0,0],"sum_hessian":[1.115E3,1.4E1,1.101E3,1E1,4E0,1.7E1,1.084E3,3E0,7E0,3E0,1E0,4E0,1.3E1,9E0,1.075E3],"tree_param":{"num_deleted":"0","num_feature":"4","num_nodes":"15","size_leaf_vector":"1"}},{"base_weights":[-3.7303672E-3,-8.2056075E-2,6.6482167E0,1.3917271E-2,-7.5552607E0,-1.3099365E-1,9.675755E0,2.5563527E-2,-2.410728E-1,-4.169147E0,1.608396E-1,-3.1304118E-1,2.9120892E-1,5.271716E-1,1.2144641E0],"categories":[],"categories_nodes":[],"categories_segments":[],"categories_sizes":[],"default_left":[0,0,0,0,0,0,0,0,0,0,0,0,0,0,0],"id":61,"left_children":[1,3,5,7,9,11,13,-1,-1,-1,-1,-1,-1,-1,-1],"loss_changes":[5.820022E2,7.9192535E2,2.6808356E2,6.4003E2,4.4464316E3,5.475343E1,3.3834534E1,0E0,0E0,0E0,0E0,0E0,0E0,0E0,0E0],"parents":[2147483647,0,0,1,1,2,2,3,3,4,4,5,5,6,6],"right_children":[2,4,6,8,10,12,14,-1,-1,-1,-1,-1,-1,-1,-1],"split_conditions":[3.2700894E0,2.476535E0,-1.3445165E0,1.4244356E0,2.5657022E-2,1.098585E0,1.2546021E0,2.5563527E-2,-2.410728E-1,-4.169147E0,1.608396E-1,-3.1304118E-1,2.9120892E-1,5.271716E-1,1.2144641E0],"split_indices":[2,2,0,1,3,1,3,0,0,0,0,0,0,0,0],"split_type":[0,0,0,0,0,0,0,0,0,0,0,0,0,0,0],"sum_hessian":[1.115E3,1.103E3,1.2E1,1.09E3,1.3E1,4E0,8E0,9.92E2,9.8E1,2E0,1.1E1,2E0,2E0,4E0,4E0],"tree_param":{"num_deleted":"0","num_feature":"4","num_nodes":"15","size_leaf_vector":"1"}},{"base_weights":[-5.601623E-3,-1.0674718E1,4.237606E-2,-1.3772415E0,-4.0187812E-1,9.707085E0,-1.0045466E-2,-4.6516976E-1,1.8049401E0,-3.494321E-2,1.5691927E-1],"categories":[],"categories_nodes":[],"categories_segments":[],"categories_sizes":[],"default_left":[0,0,0,0,0,0,0,0,0,0,0],"id":62,"left_children":[1,3,5,-1,-1,7,9,-1,-1,-1,-1],"loss_changes":[5.717098E2,4.7742065E1,5.634798E2,0E0,0E0,8.026734E2,5.9386975E2,0E0,0E0,0E0,0E0],"parents":[2147483647,0,0,1,1,2,2,5,5,6,6],"right_children":[2,4,6,-1,-1,8,10,-1,-1,-1,-1],"split_conditions":[-2.0025737E0,-2.2273895E-1,-1.5020025E0,-1.3772415E0,-4.0187812E-1,6.393503E-1,8.3982927E-1,-4.6516976E-1,1.8049401E0,-3.494321E-2,1.5691927E-1],"split_indices":[0,1,3,0,0,0,2,0,0,0,0],"split_type":[0,0,0,0,0,0,0,0,0,0,0],"sum_hessian":[1.115E3,4E0,1.111E3,2E0,2E0,5E0,1.106E3,2E0,3E0,9.11E2,1.95E2],"tree_param":{"num_deleted":"0","num_feature":"4","num_nodes":"11","size_leaf_vector":"1"}},{"base_weights":[-5.3266846E-3,4.4079604E0,-1.1879474E-1,-2.1245494E-1,1.2745954E1,1.058754E-2,-1.1731736E1,1.9347534E0,-2.3739842E-1,-5.261486E-1,1.533139E0,-1.2164555E-2,1.5730456E0,-1.5961268E0,-4.8419937E-1],"categories":[],"categories_nodes":[],"categories_segments":[],"categories_sizes":[],"default_left":[0,0,0,0,0,0,0,0,0,0,0,0,0,0,0],"id":63,"left_children":[1,3,5,7,9,11,13,-1,-1,-1,-1,-1,-1,-1,-1],"loss_changes":[5.593797E2,1.0814077E3,1.6363563E3,8.4924097E2,5.462368E2,2.2427378E3,2.724004E2,0E0,0E0,0E0,0E0,0E0,0E0,0E0,0E0],"parents":[2147483647,0,0,1,1,2,2,3,3,4,4,5,5,6,6],"right_children":[2,4,6,8,10,12,14,-1,-1,-1,-1,-1,-1,-1,-1],"split_conditions":[-1.7433748E0,1.6730939E0,1.7542907E0,-5.652701E-1,-1.1007909E0,1.5519048E0,-5.215375E-1,1.9347534E0,-2.3739842E-1,-5.261486E-1,1.533139E0,-1.2164555E-2,1.5730456E0,-1.5961268E0,-4.8419937E-1],"split_indices":[1,0,0,0,2,0,3,0,0,0,0,0,0,0,0],"split_type":[0,0,0,0,0,0,0,0,0,0,0,0,0,0,0],"sum_hessian":[1.115E3,2.7E1,1.088E3,1.8E1,9E0,1.077E3,1.1E1,1E0,1.7E1,1E0,8E0,1.069E3,8E0,6E0,5E0],"tree_param":{"num_deleted":"0","num_feature":"4","num_nodes":"15","size_leaf_vector":"1"}},{"base_weights":[-2.8391157E-3,5.1945966E-2,-8.689782E0,-5.6956444E-2,6.661856E0,-1.7878901E0,-1.4383545E0,1.7854778E-1,-3.294919E-2,-1.6088772E-1,8.4232616E-1,-4.810032E-1,6.0241777E-1],"categories":[],"categories_nodes":[],"categories_segments":[],"categories_sizes":[],"default_left":[0,0,0,0,0,0,0,0,0,0,0,0,0],"id":64,"left_children":[1,3,5,7,9,-1,11,-1,-1,-1,-1,-1,-1],"loss_changes":[5.3157245E2,7.993965E2,4.407234E2,5.494149E2,2.7577808E2,0E0,1.5478273E2,0E0,0E0,0E0,0E0,0E0,0E0],"parents":[2147483647,0,0,1,1,2,2,3,3,4,4,6,6],"right_children":[2,4,6,8,10,-1,12,-1,-1,-1,-1,-1,-1],"split_conditions":[3.9089441E0,2.5194287E0,-2.1187727E-1,-1.0374753E0,-1.7601954E0,-1.7878901E0,8.2704294E-1,1.7854778E-1,-3.294919E-2,-1.6088772E-1,8.4232616E-1,-4.810032E-1,6.0241777E-1],"split_indices":[3,3,1,2,0,0,1,0,0,0,0,0,0],"split_type":[0,0,0,0,0,0,0,0,0,0,0,0,0],"sum_hessian":[1.115E3,1.109E3,6E0,1.092E3,1.7E1,2E0,4E0,1.4E2,9.52E2,3E0,1.4E1,3E0,1E0],"tree_param":{"num_deleted":"0","num_feature":"4","num_nodes":"13","size_leaf_vector":"1"}},{"base_weights":[-3.3076229E-3,8.3690375E-2,-5.314835E0,-4.3607622E-1,1.4139547E0,-1.4224921E1,-2.5844896E0,4.0420413E-1,-9.738469E-2,2.9337314E-1,-3.0478474E-1,-1.768863E0,-1.9168988E-1,5.273323E-2,-1.5207555E0],"categories":[],"categories_nodes":[],"categories_segments":[],"categories_sizes":[],"default_left":[0,0,0,0,0,0,0,0,0,0,0,0,0,0,0],"id":65,"left_children":[1,3,5,7,9,11,13,-1,-1,-1,-1,-1,-1,-1,-1],"loss_changes":[5.161398E2,7.6049475E2,4.0113287E2,1.908823E3,2.104253E3,1.3661829E2,5.972304E2,0E0,0E0,0E0,0E0,0E0,0E0,0E0,0E0],"parents":[2147483647,0,0,1,1,2,2,3,3,4,4,5,5,6,6],"right_children":[2,4,6,8,10,12,14,-1,-1,-1,-1,-1,-1,-1,-1],"split_conditions":[2.03975E0,6.098092E-1,-6.1431676E-1,-1.0374753E0,2.4991708E-1,-9.011815E-3,8.841501E-1,4.0420413E-1,-9.738469E-2,2.9337314E-1,-3.0478474E-1,-1.768863E0,-1.9168988E-1,5.273323E-2,-1.5207555E0],"split_indices":[1,1,2,2,3,0,2,0,0,0,0,0,0,0,0],"split_type":[0,0,0,0,0,0,0,0,0,0,0,0,0,0,0],"sum_hessian":[1.115E3,1.098E3,1.7E1,7.9E2,3.08E2,3E0,1.4E1,8.4E1,7.06E2,2.3E2,7.8E1,2E0,1E0,1.2E1,2E0],"tree_param":{"num_deleted":"0","num_feature":"4","num_nodes":"15","size_leaf_vector":"1"}},{"base_weights":[-5.7867523E-3,-8.31426E-1,5.8741224E-1,-1.828784E0,1.01608305E1,2.8210132E0,-9.870016E-1,1.2322488E-2,-4.5557418E-1,-3.9145565E-1,1.3362151E0,5.3178268E-3,5.0497854E-1,-1.1133541E0,-5.1301755E-2],"categories":[],"categories_nodes":[],"categories_segments":[],"categories_sizes":[],"default_left":[0,0,0,0,0,0,0,0,0,0,0,0,0,0,0],"id":66,"left_children":[1,3,5,7,9,11,13,-1,-1,-1,-1,-1,-1,-1,-1],"loss_changes":[5.470699E2,5.138404E3,2.2885825E3,2.2841482E3,1.8096399E3,1.6591582E3,1.8314402E3,0E0,0E0,0E0,0E0,0E0,0E0,0E0,0E0],"parents":[2147483647,0,0,1,1,2,2,3,3,4,4,5,5,6,6],"right_children":[2,4,6,8,10,12,14,-1,-1,-1,-1,-1,-1,-1,-1],"split_conditions":[-3.3943835E-1,1.6551916E-1,8.10985E-2,-7.188863E-1,-9.79028E-1,-7.9916525E-1,-1.5823622E-1,1.2322488E-2,-4.5557418E-1,-3.9145565E-1,1.3362151E0,5.3178268E-3,5.0497854E-1,-1.1133541E0,-5.1301755E-2],"split_indices":[3,2,2,3,3,0,3,0,0,0,0,0,0,0,0],"split_type":[0,0,0,0,0,0,0,0,0,0,0,0,0,0,0],"sum_hessian":[1.115E3,4.66E2,6.49E2,4.28E2,3.8E1,2.68E2,3.81E2,2.5E2,1.78E2,7E0,3.1E1,1.2E2,1.48E2,1.6E1,3.65E2],"tree_param":{"num_deleted":"0","num_feature":"4","num_nodes":"15","size_leaf_vector":"1"}},{"base_weights":[-5.3462298E-3,5.861349E0,-8.519658E-2,1.0946763E1,-6.4988313E0,-7.025378E0,3.0018602E-2,1.7831961E0,6.1358184E-1,-7.45928E-1,-1.328518E-1,-2.1668253E0,-1.2939677E-1,1.1393517E0,-7.5618024E-3],"categories":[],"categories_nodes":[],"categories_segments":[],"categories_sizes":[],"default_left":[0,0,0,0,0,0,0,0,0,0,0,0,0,0,0],"id":67,"left_children":[1,3,5,7,9,11,13,-1,-1,-1,-1,-1,-1,-1,-1],"loss_changes":[5.232981E2,1.0139906E3,8.8138586E2,2.5495374E2,1.4919327E1,1.4825999E3,1.3032974E3,0E0,0E0,0E0,0E0,0E0,0E0,0E0,0E0],"parents":[2147483647,0,0,1,1,2,2,3,3,4,4,5,5,6,6],"right_children":[2,4,6,8,10,12,14,-1,-1,-1,-1,-1,-1,-1,-1],"split_conditions":[-1.4293422E0,-1.4050576E-1,-1.3459175E0,-4.88741E-1,6.393503E-1,-4.8557526E-1,-1.316315E0,1.7831961E0,6.1358184E-1,-7.45928E-1,-1.328518E-1,-2.1668253E0,-1.2939677E-1,1.1393517E0,-7.5618024E-3],"split_indices":[3,2,3,2,0,2,3,0,0,0,0,0,0,0,0],"split_type":[0,0,0,0,0,0,0,0,0,0,0,0,0,0,0],"sum_hessian":[1.115E3,1.4E1,1.101E3,1E1,4E0,1.7E1,1.084E3,3E0,7E0,3E0,1E0,4E0,1.3E1,9E0,1.075E3],"tree_param":{"num_deleted":"0","num_feature":"4","num_nodes":"15","size_leaf_vector":"1"}},{"base_weights":[-4.4941097E-3,4.2089767E0,-1.1282532E-1,-3.061579E0,8.4182625E0,7.1491958E-3,-1.0881134E1,-4.6295482E-1,6.3090557E-1,1.8945564E0,4.0572068E-1,-9.159122E-3,1.7664034E0,-1.4861188E0,-4.424216E-1],"categories":[],"categories_nodes":[],"categories_segments":[],"categories_sizes":[],"default_left":[0,0,0,0,0,0,0,0,0,0,0,0,0,0,0],"id":68,"left_children":[1,3,5,7,9,11,13,-1,-1,-1,-1,-1,-1,-1,-1],"loss_changes":[5.0987354E2,8.826808E2,1.4069816E3,1.9082956E2,7.495167E2,1.881055E3,2.4263745E2,0E0,0E0,0E0,0E0,0E0,0E0,0E0,0E0],"parents":[2147483647,0,0,1,1,2,2,3,3,4,4,5,5,6,6],"right_children":[2,4,6,8,10,12,14,-1,-1,-1,-1,-1,-1,-1,-1],"split_conditions":[-1.7433748E0,-1.976901E0,1.7542907E0,2.2390475E0,-1.9063002E0,1.5967448E0,-5.215375E-1,-4.6295482E-1,6.3090557E-1,1.8945564E0,4.0572068E-1,-9.159122E-3,1.7664034E0,-1.4861188E0,-4.424216E-1],"split_indices":[1,1,0,0,1,0,3,0,0,0,0,0,0,0,0],"split_type":[0,0,0,0,0,0,0,0,0,0,0,0,0,0,0],"sum_hessian":[1.115E3,2.7E1,1.088E3,1E1,1.7E1,1.077E3,1.1E1,9E0,1E0,4E0,1.3E1,1.072E3,5E0,6E0,5E0],"tree_param":{"num_deleted":"0","num_feature":"4","num_nodes":"15","size_leaf_vector":"1"}},{"base_weights":[-1.9849518E-3,-1.3070604E0,3.4761754E-1,-7.023578E0,1.0485753E0,4.272642E0,-3.2525867E-1,-6.234207E-1,-1.5880688E0,5.610156E-1,-4.821678E-1,2.3105709E-1,9.9104685E-1,-3.978394E-1,5.9766795E-2],"categories":[],"categories_nodes":[],"categories_segments":[],"categories_sizes":[],"default_left":[0,0,0,0,0,0,0,0,0,0,0,0,0,0,0],"id":69,"left_children":[1,3,5,7,9,11,13,-1,-1,-1,-1,-1,-1,-1,-1],"loss_changes":[5.0963785E2,3.1853486E3,2.3281597E3,3.834131E2,4.5256934E3,1.4040757E3,2.5411743E3,0E0,0E0,0E0,0E0,0E0,0E0,0E0,0E0],"parents":[2147483647,0,0,1,1,2,2,3,3,4,4,5,5,6,6],"right_children":[2,4,6,8,10,12,14,-1,-1,-1,-1,-1,-1,-1,-1],"split_conditions":[-8.0215275E-1,-8.301193E-1,-8.740743E-1,1.0477579E0,-1.0374753E0,1.0328718E0,-3.6007026E-1,-6.234207E-1,-1.5880688E0,5.610156E-1,-4.821678E-1,2.3105709E-1,9.9104685E-1,-3.978394E-1,5.9766795E-2],"split_indices":[2,3,3,0,2,1,3,0,0,0,0,0,0,0,0],"split_type":[0,0,0,0,0,0,0,0,0,0,0,0,0,0,0],"sum_hessian":[1.115E3,2.35E2,8.8E2,6.8E1,1.67E2,1.28E2,7.52E2,6.4E1,4E0,9.4E1,7.3E1,9.6E1,3.2E1,1.51E2,6.01E2],"tree_param":{"num_deleted":"0","num_feature":"4","num_nodes":"15","size_leaf_vector":"1"}},{"base_weights":[-2.9054764E-3,-1.8220562E-1,2.48821E0,-6.9410396E0,-2.9621918E-2,8.810242E0,-8.490105E-1,1.8242009E0,-8.914906E-1,-1.9804364E-1,4.4860166E-2,-3.6023313E-1,1.0585896E0,1.748677E-1,-1.0217965E0],"categories":[],"categories_nodes":[],"categories_segments":[],"categories_sizes":[],"default_left":[0,0,0,0,0,0,0,0,0,0,0,0,0,0,0],"id":70,"left_children":[1,3,5,7,9,11,13,-1,-1,-1,-1,-1,-1,-1,-1],"loss_changes":[4.9892297E2,1.0743964E3,1.589831E3,1.3059088E3,9.524724E2,6.111853E2,1.2347487E3,0E0,0E0,0E0,0E0,0E0,0E0,0E0,0E0],"parents":[2147483647,0,0,1,1,2,2,3,3,4,4,5,5,6,6],"right_children":[2,4,6,8,10,12,14,-1,-1,-1,-1,-1,-1,-1,-1],"split_conditions":[1.3907232E0,-1.5261412E0,-1.3816807E0,-5.652701E-1,-8.0215275E-1,-1.1007909E0,1.7542907E0,1.8242009E0,-8.914906E-1,-1.9804364E-1,4.4860166E-2,-3.6023313E-1,1.0585896E0,1.748677E-1,-1.0217965E0],"split_indices":[0,1,1,0,2,2,0,0,0,0,0,0,0,0,0],"split_type":[0,0,0,0,0,0,0,0,0,0,0,0,0,0,0],"sum_hessian":[1.115E3,1.041E3,7.4E1,2.2E1,1.019E3,2.5E1,4.9E1,1E0,2.1E1,2E2,8.19E2,3E0,2.2E1,3.9E1,1E1],"tree_param":{"num_deleted":"0","num_feature":"4","num_nodes":"15","size_leaf_vector":"1"}},{"base_weights":[-2.049945E-3,-9.878359E0,4.2359762E-2,-1.2783661E0,-3.68027E-1,-2.723478E-1,1.5145255E0,-7.5118947E-3,-5.2403694E-1,1.0767926E0,-2.8925216E-2],"categories":[],"categories_nodes":[],"categories_segments":[],"categories_sizes":[],"default_left":[0,0,0,0,0,0,0,0,0,0,0],"id":71,"left_children":[1,3,5,-1,-1,7,9,-1,-1,-1,-1],"loss_changes":[4.8990045E2,4.298929E1,5.15604E2,0E0,0E0,8.9811707E2,3.2745654E3,0E0,0E0,0E0,0E0],"parents":[2147483647,0,0,1,1,2,2,5,5,6,6],"right_children":[2,4,6,-1,-1,8,10,-1,-1,-1,-1],"split_conditions":[-2.0025737E0,-2.2273895E-1,8.3982927E-1,-1.2783661E0,-3.68027E-1,6.783747E-1,1.8712425E-1,-7.5118947E-3,-5.2403694E-1,1.0767926E0,-2.8925216E-2],"split_indices":[0,1,2,0,0,2,3,0,0,0,0],"split_type":[0,0,0,0,0,0,0,0,0,0,0],"sum_hessian":[1.115E3,4E0,1.111E3,2E0,2E0,9.16E2,1.95E2,8.82E2,3.4E1,3.1E1,1.64E2],"tree_param":{"num_deleted":"0","num_feature":"4","num_nodes":"11","size_leaf_vector":"1"}},{"base_weights":[-2.856005E-3,-7.441228E-2,6.0741425E0,1.9187696E-2,-7.3632092E0,2.5964355E-2,8.759336E0,1.433144E-1,-3.706638E-2,-3.9663923E0,1.3255692E-1,-2.7981976E-1,2.8414714E-1,1.1865829E0,5.228452E-1],"categories":[],"categories_nodes":[],"categories_segments":[],"categories_sizes":[],"default_left":[0,0,0,0,0,0,0,0,0,0,0,0,0,0,0],"id":72,"left_children":[1,3,5,7,9,11,13,-1,-1,-1,-1,-1,-1,-1,-1],"loss_changes":[4.8574167E2,7.533246E2,2.1089948E2,6.019264E2,3.9817292E3,4.770823E1,3.66781E1,0E0,0E0,0E0,0E0,0E0,0E0,0E0,0E0],"parents":[2147483647,0,0,1,1,2,2,3,3,4,4,5,5,6,6],"right_children":[2,4,6,8,10,12,14,-1,-1,-1,-1,-1,-1,-1,-1],"split_conditions":[3.2700894E0,2.476535E0,-1.3445165E0,-8.7187874E-1,2.5657022E-2,1.098585E0,-9.4822794E-1,1.433144E-1,-3.706638E-2,-3.9663923E0,1.3255692E-1,-2.7981976E-1,2.8414714E-1,1.1865829E0,5.228452E-1],"split_indices":[2,2,0,0,3,1,0,0,0,0,0,0,0,0,0],"split_type":[0,0,0,0,0,0,0,0,0,0,0,0,0,0,0],"sum_hessian":[1.115E3,1.103E3,1.2E1,1.09E3,1.3E1,4E0,8E0,2.35E2,8.55E2,2E0,1.1E1,2E0,2E0,3E0,5E0],"tree_param":{"num_deleted":"0","num_feature":"4","num_nodes":"15","size_leaf_vector":"1"}},{"base_weights":[-4.3761344E-3,2.0121032E-1,-2.0951467E0,8.8278376E-2,1.156463E1,3.5708516E0,-3.0590398E0,1.5662337E-2,-1.1351438E0,2.1639645E0,-2.8383148E-1,-1.2994609E0,7.1189696E-1,-1.6678854E0,-2.012399E-1],"categories":[],"categories_nodes":[],"categories_segments":[],"categories_sizes":[],"default_left":[0,0,0,0,0,0,0,0,0,0,0,0,0,0,0],"id":73,"left_children":[1,3,5,7,9,11,13,-1,-1,-1,-1,-1,-1,-1,-1],"loss_changes":[4.8011646E2,1.3040881E3,5.5706506E2,7.8987994E2,1.512519E3,9.741512E2,1.1923704E3,0E0,0E0,0E0,0E0,0E0,0E0,0E0,0E0],"parents":[2147483647,0,0,1,1,2,2,3,3,4,4,5,5,6,6],"right_children":[2,4,6,8,10,12,14,-1,-1,-1,-1,-1,-1,-1,-1],"split_conditions":[1.4244356E0,1.368498E0,-1.517817E0,3.9089441E0,3.0002058E-1,1.5151306E0,-1.0694171E0,1.5662337E-2,-1.1351438E0,2.1639645E0,-2.8383148E-1,-1.2994609E0,7.1189696E-1,-1.6678854E0,-2.012399E-1],"split_indices":[1,1,0,3,0,1,0,0,0,0,0,0,0,0,0],"split_type":[0,0,0,0,0,0,0,0,0,0,0,0,0,0,0],"sum_hessian":[1.115E3,1.016E3,9.9E1,1.007E3,9E0,1.4E1,8.5E1,1.002E3,5E0,5E0,4E0,2E0,1.2E1,5E0,8E1],"tree_param":{"num_deleted":"0","num_feature":"4","num_nodes":"15","size_leaf_vector":"1"}},{"base_weights":[-5.457348E-3,-3.9196906E0,9.8879255E-2,1.8026704E0,-8.065043E0,-1.3956614E-1,4.335747E0,-1.3629476E0,1.0175788E0,-1.0134801E0,-2.5813574E-1,4.7577303E-4,-4.3717915E-1,5.4617697E-1,-8.69245E-1],"categories":[],"categories_nodes":[],"categories_segments":[],"categories_sizes":[],"default_left":[0,0,0,0,0,0,0,0,0,0,0,0,0,0,0],"id":74,"left_children":[1,3,5,7,9,11,13,-1,-1,-1,-1,-1,-1,-1,-1],"loss_changes":[4.5615952E2,7.024536E2,1.0997697E3,1.8184878E3,1.6678674E2,6.29767E2,8.98339E2,0E0,0E0,0E0,0E0,0E0,0E0,0E0,0E0],"parents":[2147483647,0,0,1,1,2,2,3,3,4,4,5,5,6,6],"right_children":[2,4,6,8,10,12,14,-1,-1,-1,-1,-1,-1,-1,-1],"split_conditions":[-1.7601954E0,1.0645993E0,1.6851814E0,5.675726E-1,2.5194287E0,1.5405208E0,3.9089441E0,-1.3629476E0,1.0175788E0,-1.0134801E0,-2.5813574E-1,4.7577303E-4,-4.3717915E-1,5.4617697E-1,-8.69245E-1],"split_indices":[0,2,3,2,3,2,3,0,0,0,0,0,0,0,0],"split_type":[0,0,0,0,0,0,0,0,0,0,0,0,0,0,0],"sum_hessian":[1.115E3,2.8E1,1.087E3,1.2E1,1.6E1,1.03E3,5.7E1,4E0,8E0,1.1E1,5E0,9.97E2,3.3E1,5.3E1,4E0],"tree_param":{"num_deleted":"0","num_feature":"4","num_nodes":"15","size_leaf_vector":"1"}},{"base_weights":[-7.0391283E-3,-7.4950285E-2,5.760727E0,1.4633388E-2,-7.0507245E0,1.6477966E-1,8.229506E0,1.2925066E-1,-3.3769455E-2,-3.6738648E0,9.5881656E-2,-2.3306377E-1,2.6052704E-1,8.89476E-1,1.4537354E-1],"categories":[],"categories_nodes":[],"categories_segments":[],"categories_sizes":[],"default_left":[0,0,0,0,0,0,0,0,0,0,0,0,0,0,0],"id":75,"left_children":[1,3,5,7,9,11,13,-1,-1,-1,-1,-1,-1,-1,-1],"loss_changes":[4.3756415E2,6.900099E2,1.7824097E2,4.9163782E2,3.3642385E3,3.6522152E1,2.7637878E1,0E0,0E0,0E0,0E0,0E0,0E0,0E0,0E0],"parents":[2147483647,0,0,1,1,2,2,3,3,4,4,5,5,6,6],"right_children":[2,4,6,8,10,12,14,-1,-1,-1,-1,-1,-1,-1,-1],"split_conditions":[3.2700894E0,2.476535E0,-1.3445165E0,-8.7187874E-1,2.5657022E-2,1.098585E0,1.0133208E0,1.2925066E-1,-3.3769455E-2,-3.6738648E0,9.5881656E-2,-2.3306377E-1,2.6052704E-1,8.89476E-1,1.4537354E-1],"split_indices":[2,2,0,0,3,1,1,0,0,0,0,0,0,0,0],"split_type":[0,0,0,0,0,0,0,0,0,0,0,0,0,0,0],"sum_hessian":[1.115E3,1.103E3,1.2E1,1.09E3,1.3E1,4E0,8E0,2.35E2,8.55E2,2E0,1.1E1,2E0,2E0,7E0,1E0],"tree_param":{"num_deleted":"0","num_feature":"4","num_nodes":"15","size_leaf_vector":"1"}},{"base_weights":[-8.506296E-3,-1.9133909E-1,2.1561637E0,-6.163161E0,-5.4887462E-2,8.015897E0,-3.3592075E-1,1.7371715E0,-8.0225515E-1,-1.811954E-1,3.7685465E-2,1.5020547E0,4.6446815E-1,1.5525089E-1,-9.232505E-1],"categories":[],"categories_nodes":[],"categories_segments":[],"categories_sizes":[],"default_left":[0,0,0,0,0,0,0,0,0,0,0,0,0,0,0],"id":76,"left_children":[1,3,5,7,9,11,13,-1,-1,-1,-1,-1,-1,-1,-1],"loss_changes":[4.420948E2,8.389725E2,1.2731494E3,1.1458577E3,7.6535126E2,5.4420325E2,1.0559691E3,0E0,0E0,0E0,0E0,0E0,0E0,0E0,0E0],"parents":[2147483647,0,0,1,1,2,2,3,3,4,4,5,5,6,6],"right_children":[2,4,6,8,10,12,14,-1,-1,-1,-1,-1,-1,-1,-1],"split_conditions":[1.3301286E0,-1.5261412E0,-1.3816807E0,-5.652701E-1,-8.0215275E-1,-1.0374753E0,1.7542907E0,1.7371715E0,-8.0225515E-1,-1.811954E-1,3.7685465E-2,1.5020547E0,4.6446815E-1,1.5525089E-1,-9.232505E-1],"split_indices":[0,1,1,0,2,2,0,0,0,0,0,0,0,0,0],"split_type":[0,0,0,0,0,0,0,0,0,0,0,0,0,0,0],"sum_hessian":[1.115E3,1.029E3,8.6E1,2.2E1,1.007E3,2.5E1,6.1E1,1E0,2.1E1,1.98E2,8.09E2,7E0,1.8E1,5.1E1,1E1],"tree_param":{"num_deleted":"0","num_feature":"4","num_nodes":"15","size_leaf_vector":"1"}},{"base_weights":[-5.874952E-3,-3.0959246E0,1.20842725E-1,-6.578855E0,4.076331E0,1.0285321E1,-6.232878E-2,-2.3704635E-1,-1.1899794E0,1.0121593E0,-1.0038513E0,2.2575133E0,4.2835933E-1,-3.0527894E0,8.26666E-3],"categories":[],"categories_nodes":[],"categories_segments":[],"categories_sizes":[],"default_left":[0,0,0,0,0,0,0,0,0,0,0,0,0,0,0],"id":77,"left_children":[1,3,5,7,9,11,13,-1,-1,-1,-1,-1,-1,-1,-1],"loss_changes":[4.3735947E2,1.1259581E3,1.9983983E3,6.435697E2,1.3815249E3,1.3047393E3,4.6628447E3,0E0,0E0,0E0,0E0,0E0,0E0,0E0,0E0],"parents":[2147483647,0,0,1,1,2,2,3,3,4,4,5,5,6,6],"right_children":[2,4,6,8,10,12,14,-1,-1,-1,-1,-1,-1,-1,-1],"split_conditions":[-1.7238387E0,8.2704294E-1,-1.6874819E0,4.4688395E-1,1.7323644E0,-1.1786941E-1,-1.6753631E0,-2.3704635E-1,-1.1899794E0,1.0121593E0,-1.0038513E0,2.2575133E0,4.2835933E-1,-3.0527894E0,8.26666E-3],"split_indices":[0,1,0,1,1,3,0,0,0,0,0,0,0,0,0],"split_type":[0,0,0,0,0,0,0,0,0,0,0,0,0,0,0],"sum_hessian":[1.115E3,4.3E1,1.072E3,2.9E1,1.4E1,1.8E1,1.054E3,1.7E1,1.2E1,1E1,4E0,5E0,1.3E1,4E0,1.05E3],"tree_param":{"num_deleted":"0","num_feature":"4","num_nodes":"15","size_leaf_vector":"1"}},{"base_weights":[-6.883112E-3,8.338468E0,-5.194632E-2,-4.377688E-1,1.5790968E1,1.3673002E-1,-1.9608313E0,4.0421525E-1,1.8359855E0,-1.6323485E-3,7.729E-1,-3.6561817E-1,1.1546852E-1],"categories":[],"categories_nodes":[],"categories_segments":[],"categories_sizes":[],"default_left":[0,0,0,0,0,0,0,0,0,0,0,0,0],"id":78,"left_children":[1,3,5,-1,7,9,11,-1,-1,-1,-1,-1,-1],"loss_changes":[4.2012537E2,6.3773083E2,4.004074E2,0E0,4.6512207E1,1.176094E3,5.324109E2,0E0,0E0,0E0,0E0,0E0,0E0],"parents":[2147483647,0,0,1,1,2,2,4,4,5,5,6,6],"right_children":[2,4,6,-1,8,10,12,-1,-1,-1,-1,-1,-1],"split_conditions":[-1.5020025E0,6.393503E-1,1.4244356E0,-4.377688E-1,6.635881E-1,1.3522054E0,4.3696436E-1,4.0421525E-1,1.8359855E0,-1.6323485E-3,7.729E-1,-3.6561817E-1,1.1546852E-1],"split_indices":[3,0,1,0,0,1,0,0,0,0,0,0,0],"split_type":[0,0,0,0,0,0,0,0,0,0,0,0,0],"sum_hessian":[1.115E3,5E0,1.11E3,2E0,3E0,1.011E3,9.9E1,1E0,2E0,9.92E2,1.9E1,6.4E1,3.5E1],"tree_param":{"num_deleted":"0","num_feature":"4","num_nodes":"13","size_leaf_vector":"1"}},{"base_weights":[-4.112616E-3,7.805027E0,-4.6282485E-2,-4.0858436E-1,1.4771923E1,-4.2311832E-1,8.624269E-1,3.840046E-1,1.7135867E0,3.8238782E-1,-9.097806E-2,1.0386659E0,2.7209297E-2],"categories":[],"categories_nodes":[],"categories_segments":[],"categories_sizes":[],"default_left":[0,0,0,0,0,0,0,0,0,0,0,0,0],"id":79,"left_children":[1,3,5,-1,7,9,11,-1,-1,-1,-1,-1,-1],"loss_changes":[3.678716E2,5.574105E2,3.8080933E2,0E0,3.7566833E1,1.6280253E3,1.8301014E3,0E0,0E0,0E0,0E0,0E0,0E0],"parents":[2147483647,0,0,1,1,2,2,4,4,5,5,6,6],"right_children":[2,4,6,-1,8,10,12,-1,-1,-1,-1,-1,-1],"split_conditions":[-1.5020025E0,6.393503E-1,6.098092E-1,-4.0858436E-1,6.635881E-1,-1.048028E0,7.005043E-1,3.840046E-1,1.7135867E0,3.8238782E-1,-9.097806E-2,1.0386659E0,2.7209297E-2],"split_indices":[3,0,1,0,0,2,1,0,0,0,0,0,0],"split_type":[0,0,0,0,0,0,0,0,0,0,0,0,0],"sum_hessian":[1.115E3,5E0,1.11E3,2E0,3E0,7.85E2,3.25E2,1E0,2E0,8E1,7.05E2,1.8E1,3.07E2],"tree_param":{"num_deleted":"0","num_feature":"4","num_nodes":"13","size_leaf_vector":"1"}},{"base_weights":[-9.707379E-4,-4.3221993E0,7.7812806E-2,-1.43812065E1,-9.0862226E-1,2.156389E0,-1.7254415E-1,-1.3924345E-1,-2.2576244E0,-2.8853342E-1,4.0172106E-1,-5.774128E-1,5.4350996E-1,-4.12101E-1,2.7583167E-2],"categories":[],"categories_nodes":[],"categories_segments":[],"categories_sizes":[],"default_left":[0,0,0,0,0,0,0,0,0,0,0,0,0,0,0],"id":80,"left_children":[1,3,5,7,9,11,13,-1,-1,-1,-1,-1,-1,-1,-1],"loss_changes":[3.8026926E2,6.7367676E2,5.712355E2,5.0078137E2,1.673822E2,3.0996035E3,1.7361251E3,0E0,0E0,0E0,0E0,0E0,0E0,0E0,0E0],"parents":[2147483647,0,0,1,1,2,2,3,3,4,4,5,5,6,6],"right_children":[2,4,6,8,10,12,14,-1,-1,-1,-1,-1,-1,-1,-1],"split_conditions":[-1.2274219E0,-9.826161E-1,-1.048028E0,-1.2337534E0,7.363016E-1,-8.301193E-1,-8.0215275E-1,-1.3924345E-1,-2.2576244E0,-2.8853342E-1,4.0172106E-1,-5.774128E-1,5.4350996E-1,-4.12101E-1,2.7583167E-2],"split_indices":[2,3,2,2,0,3,2,0,0,0,0,0,0,0,0],"split_type":[0,0,0,0,0,0,0,0,0,0,0,0,0,0,0],"sum_hessian":[1.115E3,1.9E1,1.096E3,4E0,1.5E1,1.17E2,9.79E2,2E0,2E0,1.1E1,4E0,3.4E1,8.3E1,9.9E1,8.8E2],"tree_param":{"num_deleted":"0","num_feature":"4","num_nodes":"15","size_leaf_vector":"1"}},{"base_weights":[-3.2944423E-3,-1.5497634E-1,2.1041167E0,-5.451903E0,-3.5383895E-2,7.26842E0,-6.234037E-1,1.2355983E0,-7.736272E-1,-1.634516E-1,3.5664167E-2,-5.111441E-1,9.1054213E-1,1.4965653E-1,-8.275709E-1],"categories":[],"categories_nodes":[],"categories_segments":[],"categories_sizes":[],"default_left":[0,0,0,0,0,0,0,0,0,0,0,0,0,0,0],"id":81,"left_children":[1,3,5,7,9,11,13,-1,-1,-1,-1,-1,-1,-1,-1],"loss_changes":[3.570623E2,6.5988525E2,1.0609619E3,1.0312242E3,6.400216E2,6.378291E2,8.235177E2,0E0,0E0,0E0,0E0,0E0,0E0,0E0,0E0],"parents":[2147483647,0,0,1,1,2,2,3,3,4,4,5,5,6,6],"right_children":[2,4,6,8,10,12,14,-1,-1,-1,-1,-1,-1,-1,-1],"split_conditions":[1.3907232E0,-1.5261412E0,-1.3816807E0,-3.8712204E-1,-8.0215275E-1,-1.1007909E0,1.7542907E0,1.2355983E0,-7.736272E-1,-1.634516E-1,3.5664167E-2,-5.111441E-1,9.1054213E-1,1.4965653E-1,-8.275709E-1],"split_indices":[0,1,1,0,2,2,0,0,0,0,0,0,0,0,0],"split_type":[0,0,0,0,0,0,0,0,0,0,0,0,0,0,0],"sum_hessian":[1.115E3,1.041E3,7.4E1,2.2E1,1.019E3,2.5E1,4.9E1,2E0,2E1,2E2,8.19E2,3E0,2.2E1,3.9E1,1E1],"tree_param":{"num_deleted":"0","num_feature":"4","num_nodes":"15","size_leaf_vector":"1"}},{"base_weights":[-2.915649E-3,-2.808672E0,1.1214138E-1,9.485248E0,-4.628027E0,9.433179E0,-5.5831935E-2,1.6722182E0,-1.3349713E0,-1.428881E0,-2.4385266E-1,2.073961E0,3.913766E-1,-2.8109443E0,7.768271E-3],"categories":[],"categories_nodes":[],"categories_segments":[],"categories_sizes":[],"default_left":[0,0,0,0,0,0,0,0,0,0,0,0,0,0,0],"id":82,"left_children":[1,3,5,7,9,11,13,-1,-1,-1,-1,-1,-1,-1,-1],"loss_changes":[3.605843E2,1.0280461E3,1.6805072E3,1.2147668E3,7.9009546E2,1.1045223E3,3.953758E3,0E0,0E0,0E0,0E0,0E0,0E0,0E0,0E0],"parents":[2147483647,0,0,1,1,2,2,3,3,4,4,5,5,6,6],"right_children":[2,4,6,8,10,12,14,-1,-1,-1,-1,-1,-1,-1,-1],"split_conditions":[-1.7238387E0,-2.0757343E-1,-1.6874819E0,1.0589399E0,-2.2273895E-1,-1.1786941E-1,-1.6753631E0,1.6722182E0,-1.3349713E0,-1.428881E0,-2.4385266E-1,2.073961E0,3.913766E-1,-2.8109443E0,7.768271E-3],"split_indices":[0,3,0,1,1,3,0,0,0,0,0,0,0,0,0],"split_type":[0,0,0,0,0,0,0,0,0,0,0,0,0,0,0],"sum_hessian":[1.115E3,4.3E1,1.072E3,5E0,3.8E1,1.8E1,1.054E3,4E0,1E0,6E0,3.2E1,5E0,1.3E1,4E0,1.05E3],"tree_param":{"num_deleted":"0","num_feature":"4","num_nodes":"15","size_leaf_vector":"1"}},{"base_weights":[-4.122023E-3,-5.628962E-1,5.719309E-1,-1.1155628E0,7.619924E0,9.121862E0,9.583901E-2,1.0178528E0,-1.329378E-1,-2.9490358E-1,1.1252135E0,-3.019392E-1,1.9175342E0,-2.0872548E0,3.390005E-2],"categories":[],"categories_nodes":[],"categories_segments":[],"categories_sizes":[],"default_left":[0,0,0,0,0,0,0,0,0,0,0,0,0,0,0],"id":83,"left_children":[1,3,5,7,9,11,13,-1,-1,-1,-1,-1,-1,-1,-1],"loss_changes":[3.595439E2,2.5726848E3,2.2379297E3,1.2982305E3,1.4151755E3,3.5976921E3,2.6685989E3,0E0,0E0,0E0,0E0,0E0,0E0,0E0,0E0],"parents":[2147483647,0,0,1,1,2,2,3,3,4,4,5,5,6,6],"right_children":[2,4,6,8,10,12,14,-1,-1,-1,-1,-1,-1,-1,-1],"split_conditions":[-1.6630958E-1,2.4993984E-1,-1.2683982E-1,-1.6996008E0,-2.9523561E-3,-2.9551226E-1,-1.2504573E-1,1.0178528E0,-1.329378E-1,-2.9490358E-1,1.1252135E0,-3.019392E-1,1.9175342E0,-2.0872548E0,3.390005E-2],"split_indices":[3,2,3,0,0,1,3,0,0,0,0,0,0,0,0],"split_type":[0,0,0,0,0,0,0,0,0,0,0,0,0,0,0],"sum_hessian":[1.115E3,5.66E2,5.49E2,5.31E2,3.5E1,2.8E1,5.21E2,9E0,5.22E2,9E0,2.6E1,1.3E1,1.5E1,5E0,5.16E2],"tree_param":{"num_deleted":"0","num_feature":"4","num_nodes":"15","size_leaf_vector":"1"}},{"base_weights":[-2.566577E-3,-1.6205113E0,2.2173826E-1,7.252964E-1,-1.1117486E1,4.1246486E0,-1.7712435E-1,7.589472E-1,-3.1520602E-1,-1.8664273E0,-4.7625548E-1,-1.0027694E0,5.99565E-1,6.3427365E-3,-4.0595537E-1],"categories":[],"categories_nodes":[],"categories_segments":[],"categories_sizes":[],"default_left":[0,0,0,0,0,0,0,0,0,0,0,0,0,0,0],"id":84,"left_children":[1,3,5,7,9,11,13,-1,-1,-1,-1,-1,-1,-1,-1],"loss_changes":[4.0537006E2,3.0378818E3,1.5278778E3,2.951557E3,1.2060112E3,2.4697163E3,8.3238464E2,0E0,0E0,0E0,0E0,0E0,0E0,0E0,0E0],"parents":[2147483647,0,0,1,1,2,2,3,3,4,4,5,5,6,6],"right_children":[2,4,6,8,10,12,14,-1,-1,-1,-1,-1,-1,-1,-1],"split_conditions":[-1.3445165E0,-1.517817E0,-9.4822794E-1,1.8712425E-1,4.4688395E-1,-5.879353E-1,1.5477158E0,7.589472E-1,-3.1520602E-1,-1.8664273E0,-4.7625548E-1,-1.0027694E0,5.99565E-1,6.3427365E-3,-4.0595537E-1],"split_indices":[0,0,0,3,1,2,1,0,0,0,0,0,0,0,0],"split_type":[0,0,0,0,0,0,0,0,0,0,0,0,0,0,0],"sum_hessian":[1.115E3,1.35E2,9.8E2,1.09E2,2.6E1,9E1,8.9E2,3.9E1,7E1,1.1E1,1.5E1,1E1,8E1,8.39E2,5.1E1],"tree_param":{"num_deleted":"0","num_feature":"4","num_nodes":"15","size_leaf_vector":"1"}},{"base_weights":[-4.729715E-3,4.8050947E0,-7.019491E-2,9.259586E0,-5.955806E0,-6.622088E0,3.856479E-2,1.5416898E0,5.0234836E-1,-6.788134E-1,-1.3132477E-1,-2.0016642E0,-1.3653123E-1,9.8759717E-1,-5.289677E-3],"categories":[],"categories_nodes":[],"categories_segments":[],"categories_sizes":[],"default_left":[0,0,0,0,0,0,0,0,0,0,0,0,0,0,0],"id":85,"left_children":[1,3,5,7,9,11,13,-1,-1,-1,-1,-1,-1,-1,-1],"loss_changes":[3.5173898E2,7.741635E2,7.8552057E2,2.0946655E2,1.0406143E1,1.2400898E3,9.7674536E2,0E0,0E0,0E0,0E0,0E0,0E0,0E0,0E0],"parents":[2147483647,0,0,1,1,2,2,3,3,4,4,5,5,6,6],"right_children":[2,4,6,8,10,12,14,-1,-1,-1,-1,-1,-1,-1,-1],"split_conditions":[-1.4293422E0,-1.4050576E-1,-1.3459175E0,-4.88741E-1,6.393503E-1,-4.8557526E-1,-1.316315E0,1.5416898E0,5.0234836E-1,-6.788134E-1,-1.3132477E-1,-2.0016642E0,-1.3653123E-1,9.8759717E-1,-5.289677E-3],"split_indices":[3,2,3,2,0,2,3,0,0,0,0,0,0,0,0],"split_type":[0,0,0,0,0,0,0,0,0,0,0,0,0,0,0],"sum_hessian":[1.115E3,1.4E1,1.101E3,1E1,4E0,1.7E1,1.084E3,3E0,7E0,3E0,1E0,4E0,1.3E1,9E0,1.075E3],"tree_param":{"num_deleted":"0","num_feature":"4","num_nodes":"15","size_leaf_vector":"1"}},{"base_weights":[-4.1871294E-3,-1.01490445E-1,3.1922061E0,-4.6856213E-2,-7.4439373E0,5.1221156E0,-1.2080168E0,-6.853711E-2,5.7537228E-2,-2.0589676E-1,-7.91908E-1,1.1632127E0,1.7782003E-1],"categories":[],"categories_nodes":[],"categories_segments":[],"categories_sizes":[],"default_left":[0,0,0,0,0,0,0,0,0,0,0,0,0],"id":86,"left_children":[1,3,5,7,9,11,-1,-1,-1,-1,-1,-1,-1],"loss_changes":[3.474219E2,4.3449664E2,1.0345278E3,4.282887E2,4.1639404E0,6.323835E2,0E0,0E0,0E0,0E0,0E0,0E0,0E0],"parents":[2147483647,0,0,1,1,2,2,3,3,4,4,5,5],"right_children":[2,4,6,8,10,12,-1,-1,-1,-1,-1,-1,-1],"split_conditions":[1.5519048E0,1.5119123E0,-5.105736E-1,-1.6630958E-1,-9.91044E-1,-1.0374753E0,-1.2080168E0,-6.853711E-2,5.7537228E-2,-2.0589676E-1,-7.91908E-1,1.1632127E0,1.7782003E-1],"split_indices":[0,